solver_type L2R_L2LOSS_SVC_DUAL
nr_class 2
label 1 2
nr_feature 27520
bias -1
w
0.004098513490020307 
-0.004053620604403733 
-0.006194413047661603 
-0.009685059316174124 
-0.01476694539832263 
0 
-0.006194413047661603 
0.009685059316174124 
0.004098513490020307 
0.004053620604403733 
0.001788745552262031 
-0.0001859091108038408 
-0.001761003289249483 
-0.002597159250568261 
-0.002168788136781837 
0 
-0.001761003289249483 
0.002597159250568261 
0.001788745552262031 
0.0001859091108038408 
0.001382242139940002 
-0.0004192466386170717 
-0.002509364312725392 
-0.002214744119644039 
-0.0003691125348838197 
0 
-0.002509364312725392 
0.002214744119644039 
0.001382242139940002 
0.0004192466386170717 
0.002520965618422484 
-0.002076053157287652 
-0.004150454868417666 
-0.003004717616760743 
-0.002055625023381618 
0 
-0.004150454868417666 
0.003004717616760743 
0.002520965618422484 
0.002076053157287652 
0.001487381868878443 
-0.001886956653685887 
-0.001848106610351619 
-0.002557677688879427 
-0.00433665081356059 
0 
-0.001848106610351619 
0.002557677688879427 
0.001487381868878443 
0.001886956653685887 
0.00435535514824825 
-0.002611898250017398 
-0.00565646166833456 
-0.003877196643938828 
-0.0008679906546793982 
0 
-0.00565646166833456 
0.003877196643938828 
0.00435535514824825 
0.002611898250017398 
0.005561718175648897 
-0.000341667576254932 
-0.003695281162541946 
-0.01015316544464924 
-0.01119194240381139 
0 
-0.003695281162541946 
0.01015316544464924 
0.005561718175648897 
0.000341667576254932 
0.006083903884650888 
-0.009163378440729501 
-0.01397837343227542 
-0.01301125093311036 
-0.02158318093054615 
0 
-0.01397837343227542 
0.01301125093311036 
0.006083903884650888 
0.009163378440729501 
0.006982144979613658 
-0.001986136685776553 
-0.00466830157982276 
-0.01490506359940533 
-0.02094259182079182 
0 
-0.00466830157982276 
0.01490506359940533 
0.006982144979613658 
0.001986136685776553 
0.006226460180418169 
0.001274473174272903 
-0.001454964328857484 
-0.01180384303447713 
-0.01454841067192665 
0 
-0.001454964328857484 
0.01180384303447713 
0.006226460180418169 
-0.001274473174272903 
0.005740889707050547 
0.0007450835029516405 
-0.002597668455037852 
-0.009353150433231896 
-0.009589096014552864 
0 
-0.002597668455037852 
0.009353150433231896 
0.005740889707050547 
-0.0007450835029516405 
0.00646221225063135 
0.00144150249146045 
-0.001471022549038295 
-0.01175582156537299 
-0.01414931147100141 
0 
-0.001471022549038295 
0.01175582156537299 
0.00646221225063135 
-0.00144150249146045 
0.004803005293772216 
0.003796670837252352 
0.002235693117199132 
-0.01279522638253892 
-0.01765221750706288 
0 
0.002235693117199132 
0.01279522638253892 
0.004803005293772216 
-0.003796670837252352 
0.004094355148711946 
0.003289580020425646 
0.0005039592534737181 
-0.008929849537519303 
-0.01018025476171256 
0 
0.0005039592534737181 
0.008929849537519303 
0.004094355148711946 
-0.003289580020425646 
0.003090692282785075 
0.004033176857897083 
0.001600645988210592 
-0.008506483889822117 
-0.009002784927590652 
0 
0.001600645988210592 
0.008506483889822117 
0.003090692282785075 
-0.004033176857897083 
0.005287367274940763 
-0.01035370594530592 
-0.01614160385139241 
-0.01502298299775229 
-0.0258196319526924 
0 
-0.01614160385139241 
0.01502298299775229 
0.005287367274940763 
0.01035370594530592 
0.004299064860604482 
-0.003987380636076234 
-0.006601249894524148 
-0.01244547845400315 
-0.01898287174755211 
0 
-0.006601249894524148 
0.01244547845400315 
0.004299064860604482 
0.003987380636076234 
0.005139948859794486 
0.001103382735465084 
-0.001205896915353193 
-0.01065839909701471 
-0.01357917595647229 
0 
-0.001205896915353193 
0.01065839909701471 
0.005139948859794486 
-0.001103382735465084 
0.003554897783066469 
0.0008325227004727985 
-0.001868015460627758 
-0.006139756923085937 
-0.005292600147170518 
0 
-0.001868015460627758 
0.006139756923085937 
0.003554897783066469 
-0.0008325227004727985 
0.003067456096756455 
0.001387790005610342 
-0.0002675462573185072 
-0.008099073460907462 
-0.009927629442095038 
0 
-0.0002675462573185072 
0.008099073460907462 
0.003067456096756455 
-0.001387790005610342 
0.004211133515055748 
-0.000571310951306539 
-0.002990235558224478 
-0.005916268339804615 
-0.005302403206964362 
0 
-0.002990235558224478 
0.005916268339804615 
0.004211133515055748 
0.000571310951306539 
0.006254547259257798 
0.0008884425044686157 
-0.0028772664806637 
-0.01033445363199975 
-0.01036961505618293 
0 
-0.0028772664806637 
0.01033445363199975 
0.006254547259257798 
-0.0008884425044686157 
0.005126814565518389 
-0.001136371083323279 
-0.003747042164648431 
-0.007985637428441427 
-0.007875670468677824 
0 
-0.003747042164648431 
0.007985637428441427 
0.005126814565518389 
0.001136371083323279 
-0.001526878058427708 
-0.001997385368924772 
-0.003582005798317914 
7.753778602269891e-05 
-0.001327567856503335 
0 
-0.003582005798317914 
-7.753778602269891e-05 
-0.001526878058427708 
0.001997385368924772 
0.0007562751894674688 
0.01234036399065305 
0.01839235654374223 
0.01358913641154177 
0.03006258034872126 
0 
0.01839235654374223 
-0.01358913641154177 
0.0007562751894674688 
-0.01234036399065305 
0.003994871103428672 
-0.0006292073223011305 
-0.003113856766034254 
-0.007909257135646101 
-0.008486016251537967 
0 
-0.003113856766034254 
0.007909257135646101 
0.003994871103428672 
0.0006292073223011305 
0.006875062976466466 
-0.002001654949233225 
-0.005391707521151301 
-0.01135850309965649 
-0.01336408938607 
0 
-0.005391707521151301 
0.01135850309965649 
0.006875062976466466 
0.002001654949233225 
0.004395306727954236 
-0.001244912005617929 
-0.002785611902549356 
-0.01141772791660056 
-0.01694189750006149 
0 
-0.002785611902549356 
0.01141772791660056 
0.004395306727954236 
0.001244912005617929 
0.005392950606513509 
-0.002098353217980149 
-0.00605329196863715 
-0.01205570145473261 
-0.01634571802454865 
0 
-0.00605329196863715 
0.01205570145473261 
0.005392950606513509 
0.002098353217980149 
0.0008126959608350299 
0.0002632159334616236 
-0.001381692948264094 
-0.003153834049452442 
-0.002801984801113641 
0 
-0.001381692948264094 
0.003153834049452442 
0.0008126959608350299 
-0.0002632159334616236 
0.002103727916150289 
-0.0006872043398076598 
-0.002596723734984223 
-0.004610343977230483 
-0.004866200844228725 
0 
-0.002596723734984223 
0.004610343977230483 
0.002103727916150289 
0.0006872043398076598 
0.003870222791952113 
-0.004682224635196381 
-0.00571018364980147 
-0.01047728756756551 
-0.0171229639985133 
0 
-0.00571018364980147 
0.01047728756756551 
0.003870222791952113 
0.004682224635196381 
-0.001685056733695775 
-0.007286772052397283 
-0.01025674965751925 
-0.002469401868090268 
-0.007929941939643142 
0 
-0.01025674965751925 
0.002469401868090268 
-0.001685056733695775 
0.007286772052397283 
-0.0008357957642654646 
-0.001238545170072339 
-0.001386935163562853 
0.003822171605713497 
0.006550880160128036 
0 
-0.001386935163562853 
-0.003822171605713497 
-0.0008357957642654646 
0.001238545170072339 
-0.0002967927775290615 
0.002206979229427082 
0.002485694048671182 
-0.0002863149078735875 
-0.0001769275998098399 
0 
0.002485694048671182 
0.0002863149078735875 
-0.0002967927775290615 
-0.002206979229427082 
-0.003985671620325516 
0.003499078466977527 
0.005140444491597094 
0.01070685878546844 
0.01690226515382893 
0 
0.005140444491597094 
-0.01070685878546844 
-0.003985671620325516 
-0.003499078466977527 
-0.005590444053267486 
0.00314931441999069 
0.003537189448669058 
0.0117932477822447 
0.01934746809684596 
0 
0.003537189448669058 
-0.0117932477822447 
-0.005590444053267486 
-0.00314931441999069 
-0.003506711700613941 
0.0006821177604938944 
0.001663404051581393 
0.006657294923576786 
0.00868383290660624 
0 
0.001663404051581393 
-0.006657294923576786 
-0.003506711700613941 
-0.0006821177604938944 
-0.0005183284979131475 
0.0001491317627122139 
-0.0003426722995328094 
-0.0002057732479466352 
2.509127530435028e-05 
0 
-0.0003426722995328094 
0.0002057732479466352 
-0.0005183284979131475 
-0.0001491317627122139 
0.001536391585978757 
-0.009086875346197286 
-0.0149445651769261 
-0.01353632963941185 
-0.02790247067345748 
0 
-0.0149445651769261 
0.01353632963941185 
0.001536391585978757 
0.009086875346197286 
0.007833963008218932 
-0.002538707969272229 
-0.005068398852248105 
-0.01328535513103981 
-0.01699228810572588 
0 
-0.005068398852248105 
0.01328535513103981 
0.007833963008218932 
0.002538707969272229 
0.005367831172693778 
-0.0004953633689589001 
-0.002064336999835371 
-0.008011887124674301 
-0.009198612812198801 
0 
-0.002064336999835371 
0.008011887124674301 
0.005367831172693778 
0.0004953633689589001 
0.006920364456334366 
-0.001586735454297153 
-0.004502345208484946 
-0.01120448154958 
-0.01275369704894325 
0 
-0.004502345208484946 
0.01120448154958 
0.006920364456334366 
0.001586735454297153 
0.007758987509824579 
-0.003711538521575221 
-0.006609455901886152 
-0.01204673818730215 
-0.01480391360196645 
0 
-0.006609455901886152 
0.01204673818730215 
0.007758987509824579 
0.003711538521575221 
0.002592572658489123 
0.0002628596586776617 
-0.001285672516699178 
-0.002798558751690689 
-0.00204691372508908 
0 
-0.001285672516699178 
0.002798558751690689 
0.002592572658489123 
-0.0002628596586776617 
0.002232141291976675 
-0.0006889831298889321 
-0.001568011089880482 
-0.002774519297789098 
-0.002996920879420683 
0 
-0.001568011089880482 
0.002774519297789098 
0.002232141291976675 
0.0006889831298889321 
0.002500344837497836 
0.0004664237024068895 
-0.0002502713628067447 
-0.005607096859615763 
-0.008256159982227441 
0 
-0.0002502713628067447 
0.005607096859615763 
0.002500344837497836 
-0.0004664237024068895 
0.001744302391054294 
-0.004899558005801061 
-0.006046555216378681 
-0.005999212903676322 
-0.01046387695922643 
0 
-0.006046555216378681 
0.005999212903676322 
0.001744302391054294 
0.004899558005801061 
0.004992547735820418 
-0.006403470247902838 
-0.008361930304986253 
-0.01028097246908283 
-0.01547879091065696 
0 
-0.008361930304986253 
0.01028097246908283 
0.004992547735820418 
0.006403470247902838 
0.003287817518092412 
-0.004155979759165779 
-0.006240844204206188 
-0.005555034934264833 
-0.007022883947186103 
0 
-0.006240844204206188 
0.005555034934264833 
0.003287817518092412 
0.004155979759165779 
0.003941306984981782 
-0.002328413147191971 
-0.004168960460824892 
-0.006175456304941363 
-0.007201558482919117 
0 
-0.004168960460824892 
0.006175456304941363 
0.003941306984981782 
0.002328413147191971 
-0.003249356990089821 
0.002318727145611209 
0.002806552779125724 
0.006551093226206278 
0.01103886911255005 
0 
0.002806552779125724 
-0.006551093226206278 
-0.003249356990089821 
-0.002318727145611209 
-0.003615214530332526 
0.0007386317280784905 
0.001186548748360623 
0.006385104517165977 
0.008682993800172942 
0 
0.001186548748360623 
-0.006385104517165977 
-0.003615214530332526 
-0.0007386317280784905 
-0.003486848579826658 
0.001924452994553796 
0.001961303513650465 
0.007043448733806283 
0.01111444308051006 
0 
0.001961303513650465 
-0.007043448733806283 
-0.003486848579826658 
-0.001924452994553796 
-0.006381010277110525 
0.001395607149756453 
0.002923940720017673 
0.01069286206939025 
0.01420740330558906 
0 
0.002923940720017673 
-0.01069286206939025 
-0.006381010277110525 
-0.001395607149756453 
-0.005619430003047166 
0.003890321165585854 
0.005722638464013062 
0.008768228059547089 
0.0110641903369973 
0 
0.005722638464013062 
-0.008768228059547089 
-0.005619430003047166 
-0.003890321165585854 
-0.00115738139633213 
0.01106898894803401 
0.01473224159440857 
0.01104282326737354 
0.02149074138212924 
0 
0.01473224159440857 
-0.01104282326737354 
-0.00115738139633213 
-0.01106898894803401 
0.001293218538324883 
-0.0009260155515947242 
-0.001150894812611164 
-0.004271857570151909 
-0.007397648378006401 
0 
-0.001150894812611164 
0.004271857570151909 
0.001293218538324883 
0.0009260155515947242 
0.003206206397829617 
-0.002201139889958981 
-0.003663841711402902 
-0.006387458815621463 
-0.008386301994751558 
0 
-0.003663841711402902 
0.006387458815621463 
0.003206206397829617 
0.002201139889958981 
0.004372285870010346 
-0.004267515985173303 
-0.006405091027202905 
-0.009258891810962082 
-0.0134818496795163 
0 
-0.006405091027202905 
0.009258891810962082 
0.004372285870010346 
0.004267515985173303 
0.005963876442215408 
-0.003180791466976141 
-0.005471737694695608 
-0.01035992152257966 
-0.01345169900056397 
0 
-0.005471737694695608 
0.01035992152257966 
0.005963876442215408 
0.003180791466976141 
0.002984462976407511 
-0.002635659392227789 
-0.003671878764276107 
-0.005080994379158179 
-0.006294853255613251 
0 
-0.003671878764276107 
0.005080994379158179 
0.002984462976407511 
0.002635659392227789 
0.0001136990684484921 
-0.001761987672558739 
-0.001929777248743922 
0.001955977965601514 
0.003500519718924192 
0 
-0.001929777248743922 
-0.001955977965601514 
0.0001136990684484921 
0.001761987672558739 
0.0001785060634475894 
-0.002542870821432402 
-0.003253654705696665 
-0.001958839374364337 
-0.004231609697573565 
0 
-0.003253654705696665 
0.001958839374364337 
0.0001785060634475894 
0.002542870821432402 
-0.001762454393792727 
-4.728024857420141e-05 
-0.0009262161298281284 
0.001704598673220389 
0.001140589203060986 
0 
-0.0009262161298281284 
-0.001704598673220389 
-0.001762454393792727 
4.728024857420141e-05 
-0.001337606561507099 
-0.003410027181457183 
-0.005200077023573832 
-0.0007341400625562658 
-0.003585695339878648 
0 
-0.005200077023573832 
0.0007341400625562658 
-0.001337606561507099 
0.003410027181457183 
0.002602476998081848 
-0.004816676085827413 
-0.007615555072727123 
-0.005301058137914534 
-0.008532225227742522 
0 
-0.007615555072727123 
0.005301058137914534 
0.002602476998081848 
0.004816676085827413 
0.002037162553765846 
-0.001150983292803275 
-0.002120904819316638 
-0.004703941440817773 
-0.006911049115902184 
0 
-0.002120904819316638 
0.004703941440817773 
0.002037162553765846 
0.001150983292803275 
0.00414857116372542 
0.0003731292616052157 
-0.00154361936879683 
-0.005554835254531718 
-0.00535568031220476 
0 
-0.00154361936879683 
0.005554835254531718 
0.00414857116372542 
-0.0003731292616052157 
0.001504574884881526 
0.001116600363431208 
-0.000530556330435141 
-0.003366534344173602 
-0.003320613854069924 
0 
-0.000530556330435141 
0.003366534344173602 
0.001504574884881526 
-0.001116600363431208 
0.004330057540488394 
0.0006469414194229917 
-0.00186120479883412 
-0.008399899277572688 
-0.009548364659485917 
0 
-0.00186120479883412 
0.008399899277572688 
0.004330057540488394 
-0.0006469414194229917 
0.005826572746458394 
-0.0139105915759038 
-0.02195911877774818 
-0.02081966154082619 
-0.03836394068986634 
0 
-0.02195911877774818 
0.02081966154082619 
0.005826572746458394 
0.0139105915759038 
0.008252089758898214 
0.000191501654292807 
-0.004888704725011987 
-0.01885793818926767 
-0.02643625167336449 
0 
-0.004888704725011987 
0.01885793818926767 
0.008252089758898214 
-0.000191501654292807 
0.004041460931555544 
-0.002419249927642086 
-0.003970501421725912 
-0.005958561592544711 
-0.006796904108599604 
0 
-0.003970501421725912 
0.005958561592544711 
0.004041460931555544 
0.002419249927642086 
0.005078148316470854 
-0.002272430573198611 
-0.004480025995397547 
-0.007459775055255908 
-0.008479688389106404 
0 
-0.004480025995397547 
0.007459775055255908 
0.005078148316470854 
0.002272430573198611 
0.008149054895743951 
-0.003230399821522174 
-0.006740469132348794 
-0.01329394356477085 
-0.01704051223302918 
0 
-0.006740469132348794 
0.01329394356477085 
0.008149054895743951 
0.003230399821522174 
0.004989246190701849 
-0.001889611652453262 
-0.004467763057784791 
-0.008120536774222798 
-0.009852269043226782 
0 
-0.004467763057784791 
0.008120536774222798 
0.004989246190701849 
0.001889611652453262 
0.001922760875507593 
-0.001490981450192546 
-0.002543777664412608 
-0.003525063533931983 
-0.004654407573125478 
0 
-0.002543777664412608 
0.003525063533931983 
0.001922760875507593 
0.001490981450192546 
0.0003581021889758565 
-0.003835232631195003 
-0.004274905378602274 
-0.001670719788299156 
-0.00324101365666198 
0 
-0.004274905378602274 
0.001670719788299156 
0.0003581021889758565 
0.003835232631195003 
-0.00671480371910549 
-0.003281637487341805 
-0.005425887633884708 
0.003134412283216186 
-0.003344062642899111 
0 
-0.005425887633884708 
-0.003134412283216186 
-0.00671480371910549 
0.003281637487341805 
-0.005811295473412686 
0.0008720372156103958 
0.002088175438449674 
0.009877244558602021 
0.01246000206520081 
0 
0.002088175438449674 
-0.009877244558602021 
-0.005811295473412686 
-0.0008720372156103958 
-0.002669466671915284 
-8.857557966207463e-05 
0.001028593192719355 
0.004568539098218558 
0.005478366907323314 
0 
0.001028593192719355 
-0.004568539098218558 
-0.002669466671915284 
8.857557966207463e-05 
-0.004313968779757661 
-0.0004104739509406864 
0.0004592457314726612 
0.005876686030470783 
0.006688606033081186 
0 
0.0004592457314726612 
-0.005876686030470783 
-0.004313968779757661 
0.0004104739509406864 
0.0002137741045789005 
-0.003509372387864608 
-0.004029097064857728 
0.003250405848371499 
0.006272990539030066 
0 
-0.004029097064857728 
-0.003250405848371499 
0.0002137741045789005 
0.003509372387864608 
0.003284323227805572 
-0.001559428448212314 
-0.002482172740479736 
-0.004429692045593007 
-0.005244621390748798 
0 
-0.002482172740479736 
0.004429692045593007 
0.003284323227805572 
0.001559428448212314 
0.004944510168738861 
-0.00281768413484634 
-0.004401145029600971 
-0.008951790102363954 
-0.01217716298015439 
0 
-0.004401145029600971 
0.008951790102363954 
0.004944510168738861 
0.00281768413484634 
0.000484222167720824 
-0.003057997948706309 
-0.003261209507164999 
-0.0008923977543057495 
-0.001499180506212416 
0 
-0.003261209507164999 
0.0008923977543057495 
0.000484222167720824 
0.003057997948706309 
-0.001293502516967579 
0.0006797434038870591 
0.0008859709061916248 
-0.0002376091854458353 
-0.002102883213406699 
0 
0.0008859709061916248 
0.0002376091854458353 
-0.001293502516967579 
-0.0006797434038870591 
0.001849421627478184 
0.009345024176832188 
0.01135753058093641 
0.004896644482846815 
0.01298013320686037 
0 
0.01135753058093641 
-0.004896644482846815 
0.001849421627478184 
-0.009345024176832188 
0.003760021432512959 
-0.004171253862675735 
-0.005071397482930043 
-0.008100484082342723 
-0.012503039681909 
0 
-0.005071397482930043 
0.008100484082342723 
0.003760021432512959 
0.004171253862675735 
0.007493505838109125 
-0.002062542732241973 
-0.004875625382036028 
-0.01211316044859114 
-0.01472681149462778 
0 
-0.004875625382036028 
0.01211316044859114 
0.007493505838109125 
0.002062542732241973 
0.005614730275402141 
-0.001360720612454861 
-0.004895840511785503 
-0.0119834665076453 
-0.01603405014075763 
0 
-0.004895840511785503 
0.0119834665076453 
0.005614730275402141 
0.001360720612454861 
0.006356113102303443 
-0.003580942952302979 
-0.005623373811864152 
-0.008797794264184091 
-0.01117692685560978 
0 
-0.005623373811864152 
0.008797794264184091 
0.006356113102303443 
0.003580942952302979 
0.00226090398476706 
-0.001891212576743938 
-0.00281925408155207 
-0.004098665995085907 
-0.005759150777455077 
0 
-0.00281925408155207 
0.004098665995085907 
0.00226090398476706 
0.001891212576743938 
-0.0005421408703586111 
-0.0009725319356753038 
-0.001323784021808804 
0.0008702735527225161 
0.001211152586268376 
0 
-0.001323784021808804 
-0.0008702735527225161 
-0.0005421408703586111 
0.0009725319356753038 
0.0004850434424045968 
0.0002367673124203293 
-0.0005084928668755616 
0.0002076383189347294 
0.001678034957626076 
0 
-0.0005084928668755616 
-0.0002076383189347294 
0.0004850434424045968 
-0.0002367673124203293 
-0.003654653854138057 
0.003245409596229561 
0.004978473426860214 
0.006473955341048505 
0.007941315752867158 
0 
0.004978473426860214 
-0.006473955341048505 
-0.003654653854138057 
-0.003245409596229561 
-0.0002115715929431796 
-0.002520790721364202 
-0.002710765978980685 
-0.0004875473544077165 
-0.001118068858966312 
0 
-0.002710765978980685 
0.0004875473544077165 
-0.0002115715929431796 
0.002520790721364202 
0.004882027552869418 
-3.318723067885252e-05 
-0.003225466753739955 
-0.007538500164225817 
-0.007404463378641276 
0 
-0.003225466753739955 
0.007538500164225817 
0.004882027552869418 
3.318723067885252e-05 
0.00524594133855963 
0.0005727026322952384 
-0.003612123616129622 
-0.006089669489873805 
-0.003252410230555744 
0 
-0.003612123616129622 
0.006089669489873805 
0.00524594133855963 
-0.0005727026322952384 
0.005414566829645451 
0.001528780351904582 
-0.001722314350061163 
-0.01239798046891297 
-0.01540908156529745 
0 
-0.001722314350061163 
0.01239798046891297 
0.005414566829645451 
-0.001528780351904582 
0.00521258336009487 
0.0002386802430213852 
-0.00369325243530924 
-0.007692423959541043 
-0.006051231474966735 
0 
-0.00369325243530924 
0.007692423959541043 
0.00521258336009487 
-0.0002386802430213852 
0.005725832784516006 
0.001656397930141139 
-0.002839600944161138 
-0.009555023972701592 
-0.007951085239846591 
0 
-0.002839600944161138 
0.009555023972701592 
0.005725832784516006 
-0.001656397930141139 
0.006146799895385455 
-0.008784476177970381 
-0.01835663524616936 
-0.01954980581804247 
-0.03399596412170926 
0 
-0.01835663524616936 
0.01954980581804247 
0.006146799895385455 
0.008784476177970381 
0.006330650421044907 
-0.001301561512747197 
-0.004414057300034827 
-0.01635873340586272 
-0.02478249834110264 
0 
-0.004414057300034827 
0.01635873340586272 
0.006330650421044907 
0.001301561512747197 
0.00475164087236606 
0.002838847130985993 
-0.0004377515268046739 
-0.01031675469423629 
-0.01067629534308953 
0 
-0.0004377515268046739 
0.01031675469423629 
0.00475164087236606 
-0.002838847130985993 
0.004253954069309222 
0.001255851453479222 
-0.001886874779386023 
-0.006591130345826609 
-0.005158859747534287 
0 
-0.001886874779386023 
0.006591130345826609 
0.004253954069309222 
-0.001255851453479222 
0.006701578466505838 
0.0002115511886999138 
-0.003985106646485233 
-0.008481466259366934 
-0.007085864826492177 
0 
-0.003985106646485233 
0.008481466259366934 
0.006701578466505838 
-0.0002115511886999138 
0.005142320554327074 
0.002542519499906208 
-0.0003189460131812629 
-0.01016971462825521 
-0.01180121734099228 
0 
-0.0003189460131812629 
0.01016971462825521 
0.005142320554327074 
-0.002542519499906208 
0.004138634312300581 
-0.001731299644175418 
-0.003829797354199742 
-0.005646307256630459 
-0.005244511676713037 
0 
-0.003829797354199742 
0.005646307256630459 
0.004138634312300581 
0.001731299644175418 
0.00177302346774454 
-0.003018532457352256 
-0.003516972414460523 
-0.005066985644952598 
-0.007971833831383454 
0 
-0.003516972414460523 
0.005066985644952598 
0.00177302346774454 
0.003018532457352256 
-0.0006519611603857358 
-0.007284913129435142 
-0.01429315891933241 
-0.009632923515097497 
-0.02260551355596439 
0 
-0.01429315891933241 
0.009632923515097497 
-0.0006519611603857358 
0.007284913129435142 
0.001751646396562896 
-0.002790175241126058 
-0.003254044022932985 
-0.008891898156856424 
-0.01728866733551622 
0 
-0.003254044022932985 
0.008891898156856424 
0.001751646396562896 
0.002790175241126058 
0.004334582769430008 
0.0009363560365360613 
-0.0003302587264550558 
-0.0100354798712298 
-0.01420643205940863 
0 
-0.0003302587264550558 
0.0100354798712298 
0.004334582769430008 
-0.0009363560365360613 
0.004117602906759906 
0.001892681847579542 
0.0002690492214496643 
-0.01075619391878866 
-0.01465955074375094 
0 
0.0002690492214496643 
0.01075619391878866 
0.004117602906759906 
-0.001892681847579542 
0.004727945316961555 
0.0008786423622229802 
-0.0004069580687012184 
-0.01329334976696214 
-0.02071953204383068 
0 
-0.0004069580687012184 
0.01329334976696214 
0.004727945316961555 
-0.0008786423622229802 
0.006475881746653597 
0.003195618538639389 
-0.000124589576217485 
-0.01358867589900048 
-0.01631534808832679 
0 
-0.000124589576217485 
0.01358867589900048 
0.006475881746653597 
-0.003195618538639389 
0.004600028776484787 
0.0005665329643532611 
-0.001062358832952061 
-0.01121964682222416 
-0.01492600224971606 
0 
-0.001062358832952061 
0.01121964682222416 
0.004600028776484787 
-0.0005665329643532611 
0.004649731668878071 
-4.358056995178072e-06 
-0.001132720749631912 
-0.01058521871261346 
-0.01548452147773407 
0 
-0.001132720749631912 
0.01058521871261346 
0.004649731668878071 
4.358056995178072e-06 
-0.003822059922790265 
0.00410803641406821 
0.005476360758724331 
0.007871225559535528 
0.0125979133809921 
0 
0.005476360758724331 
-0.007871225559535528 
-0.003822059922790265 
-0.00410803641406821 
0.004720221945203735 
0.0142108817084794 
0.02255937943772555 
0.009918284611140993 
0.0297396838966227 
0 
0.02255937943772555 
-0.009918284611140993 
0.004720221945203735 
-0.0142108817084794 
0.004502294239687368 
0.0003973123041243958 
-0.0005986661267765198 
-0.009190428236242647 
-0.01278477608207561 
0 
-0.0005986661267765198 
0.009190428236242647 
0.004502294239687368 
-0.0003973123041243958 
0.007315837422916922 
0.003208626016622198 
-0.0001914119876082247 
-0.01406226172050656 
-0.01679721090295586 
0 
-0.0001914119876082247 
0.01406226172050656 
0.007315837422916922 
-0.003208626016622198 
0.004961757741922827 
0.002640113014820433 
0.0004959511279165528 
-0.01178165889278338 
-0.01548168681472001 
0 
0.0004959511279165528 
0.01178165889278338 
0.004961757741922827 
-0.002640113014820433 
0.006474132285698129 
-0.0008537000597831976 
-0.004175709039120441 
-0.009912788610989711 
-0.0104330962523648 
0 
-0.004175709039120441 
0.009912788610989711 
0.006474132285698129 
0.0008537000597831976 
0.006626383632191001 
-0.001414013287026154 
-0.004966712503281312 
-0.009869988125139825 
-0.009630639347777485 
0 
-0.004966712503281312 
0.009869988125139825 
0.006626383632191001 
0.001414013287026154 
0.00264720427385041 
-0.004964495499712263 
-0.005993133235786402 
-0.005732135907681308 
-0.009472404652476625 
0 
-0.005993133235786402 
0.005732135907681308 
0.00264720427385041 
0.004964495499712263 
-0.0005472908236363993 
-0.0003763755083618847 
0.003072981844254677 
0.001970633815124296 
0.002160018937475018 
0 
0.003072981844254677 
-0.001970633815124296 
-0.0005472908236363993 
0.0003763755083618847 
0.006165003430699985 
-0.004030315751080347 
-0.007016299104341925 
-0.0199378904904646 
-0.03384493306209201 
0 
-0.007016299104341925 
0.0199378904904646 
0.006165003430699985 
0.004030315751080347 
0.003315427919513396 
-0.002181443306846286 
-0.003413477866644149 
-0.007756347306046711 
-0.0113723578952487 
0 
-0.003413477866644149 
0.007756347306046711 
0.003315427919513396 
0.002181443306846286 
0.005107153996873479 
-0.00128547496071618 
-0.003716410807831934 
-0.009581552370617627 
-0.01137817102600993 
0 
-0.003716410807831934 
0.009581552370617627 
0.005107153996873479 
0.00128547496071618 
0.00440504419987674 
-0.0003924142470785991 
-0.00331226657952934 
-0.006703470198224904 
-0.006868649893123769 
0 
-0.00331226657952934 
0.006703470198224904 
0.00440504419987674 
0.0003924142470785991 
0.003777315280391306 
3.430600566138982e-05 
-0.001150973109007079 
-0.01433618339634137 
-0.0230375275624181 
0 
-0.001150973109007079 
0.01433618339634137 
0.003777315280391306 
-3.430600566138982e-05 
0.00576828984714609 
-0.0004046211013299336 
-0.003106627914248023 
-0.01186873488093552 
-0.01512742377176084 
0 
-0.003106627914248023 
0.01186873488093552 
0.00576828984714609 
0.0004046211013299336 
0.004682755233634064 
0.003059021984918023 
0.001283252545775783 
-0.01266825624277725 
-0.01701654435766127 
0 
0.001283252545775783 
0.01266825624277725 
0.004682755233634064 
-0.003059021984918023 
0.008552678918955659 
-0.007342122197970881 
-0.01221740430124343 
-0.01570317121676977 
-0.02325044020177826 
0 
-0.01221740430124343 
0.01570317121676977 
0.008552678918955659 
0.007342122197970881 
0.00749549317232768 
0.0008568496831859684 
-0.0008298935002902671 
-0.01843033612016328 
-0.02736743442249153 
0 
-0.0008298935002902671 
0.01843033612016328 
0.00749549317232768 
-0.0008568496831859684 
0.005576527625590911 
0.002535464037813531 
0.0005873167788706242 
-0.01223089607726991 
-0.01557215984998547 
0 
0.0005873167788706242 
0.01223089607726991 
0.005576527625590911 
-0.002535464037813531 
0.007728621929365908 
0.002060445886706015 
-0.001364850998526174 
-0.01438343671895232 
-0.01757101499117691 
0 
-0.001364850998526174 
0.01438343671895232 
0.007728621929365908 
-0.002060445886706015 
0.007398048090102726 
-0.001382032570819814 
-0.00474579448137401 
-0.01285136263787048 
-0.01583617518258265 
0 
-0.00474579448137401 
0.01285136263787048 
0.007398048090102726 
0.001382032570819814 
0.004916385866355842 
0.003556495978089788 
0.002851280059597187 
-0.01290262621454236 
-0.01985815890721901 
0 
0.002851280059597187 
0.01290262621454236 
0.004916385866355842 
-0.003556495978089788 
0.004748258345762793 
0.003122302889625953 
0.00140541791741821 
-0.01002051371311766 
-0.01295383378772657 
0 
0.00140541791741821 
0.01002051371311766 
0.004748258345762793 
-0.003122302889625953 
0.005025202174189356 
0.002900410367604295 
0.001189089301728743 
-0.01131662460206508 
-0.01495670651788622 
0 
0.001189089301728743 
0.01131662460206508 
0.005025202174189356 
-0.002900410367604295 
0.003232587663887323 
-0.01401968573789677 
-0.02416041173318019 
-0.01980280528592835 
-0.04063043907591819 
0 
-0.02416041173318019 
0.01980280528592835 
0.003232587663887323 
0.01401968573789677 
0.007413966766672534 
0.002016233972899095 
0.0008336775471485346 
-0.01562861716828993 
-0.02127613358340792 
0 
0.0008336775471485346 
0.01562861716828993 
0.007413966766672534 
-0.002016233972899095 
0.007377347102843739 
0.0003472656486888622 
-0.0002956918415991687 
-0.01205831268185957 
-0.016204750953567 
0 
-0.0002956918415991687 
0.01205831268185957 
0.007377347102843739 
-0.0003472656486888622 
0.005373738912855166 
0.002960618761950293 
7.004181775972187e-05 
-0.01028054846448618 
-0.01161555120249295 
0 
7.004181775972187e-05 
0.01028054846448618 
0.005373738912855166 
-0.002960618761950293 
0.001942286010715395 
0.002238501464565753 
0.001916218609830633 
-0.009147599570187386 
-0.01361443705354641 
0 
0.001916218609830633 
0.009147599570187386 
0.001942286010715395 
-0.002238501464565753 
0.005612402248860035 
0.001520751527368431 
-0.001698195456927571 
-0.009619675212685941 
-0.01070121295316434 
0 
-0.001698195456927571 
0.009619675212685941 
0.005612402248860035 
-0.001520751527368431 
0.005190517105043545 
0.002089752823207792 
-0.001161460294335536 
-0.009457448093520587 
-0.009947594291114656 
0 
-0.001161460294335536 
0.009457448093520587 
0.005190517105043545 
-0.002089752823207792 
0.003895558101161197 
0.002215103153206243 
0.000930429748464367 
-0.0107266023887263 
-0.01457492396444558 
0 
0.000930429748464367 
0.0107266023887263 
0.003895558101161197 
-0.002215103153206243 
0.006563745397917072 
-0.001674413027154762 
-0.003651943573315682 
-0.01508185826824664 
-0.02201875262870037 
0 
-0.003651943573315682 
0.01508185826824664 
0.006563745397917072 
0.001674413027154762 
0.006568371165205439 
-0.003980067774549413 
-0.007829870827584398 
-0.01276031451977639 
-0.01830040541202691 
0 
-0.007829870827584398 
0.01276031451977639 
0.006568371165205439 
0.003980067774549413 
0.005590348829908908 
-0.000413321186005068 
-0.003280361624043846 
-0.01241665371471857 
-0.01633337693327841 
0 
-0.003280361624043846 
0.01241665371471857 
0.005590348829908908 
0.000413321186005068 
0.004264781507986568 
0.001909790904466259 
-0.001173189798120442 
-0.009745023275105152 
-0.01083075265023131 
0 
-0.001173189798120442 
0.009745023275105152 
0.004264781507986568 
-0.001909790904466259 
0.004663407898715421 
0.002206142901859214 
0.001174723517638704 
-0.01155955412179614 
-0.01645997975448468 
0 
0.001174723517638704 
0.01155955412179614 
0.004663407898715421 
-0.002206142901859214 
0.007507535935849598 
-0.0003548689057245513 
-0.00433816594688888 
-0.01321861498449455 
-0.01504854700089962 
0 
-0.00433816594688888 
0.01321861498449455 
0.007507535935849598 
0.0003548689057245513 
0.005630162566382633 
0.000274989258507934 
-0.002495157562437678 
-0.0101608722059863 
-0.0111753075991095 
0 
-0.002495157562437678 
0.0101608722059863 
0.005630162566382633 
-0.000274989258507934 
0.008066283809288874 
0.0001814898228249186 
-0.002735113876811952 
-0.01590821284536238 
-0.02038517034359478 
0 
-0.002735113876811952 
0.01590821284536238 
0.008066283809288874 
-0.0001814898228249186 
0.008827865903147587 
-0.004234537502234017 
-0.007076438301285308 
-0.02154336406604744 
-0.03449542076660336 
0 
-0.007076438301285308 
0.02154336406604744 
0.008827865903147587 
0.004234537502234017 
0.00240100322585937 
-0.0008810508388641476 
0.001853403959184648 
-0.003030833240835194 
-0.0009622996788428994 
0 
0.001853403959184648 
0.003030833240835194 
0.00240100322585937 
0.0008810508388641476 
-0.001713839432140239 
-0.002491734564941785 
-0.001607545780545062 
0.001357286762610348 
-0.0001640395252195004 
0 
-0.001607545780545062 
-0.001357286762610348 
-0.001713839432140239 
0.002491734564941785 
-0.002156336442348545 
-0.0005926389339583639 
0.001105539159403108 
0.003778012365935697 
0.00397492587341758 
0 
0.001105539159403108 
-0.003778012365935697 
-0.002156336442348545 
0.0005926389339583639 
-0.004142690190702645 
0.000807629711904997 
0.003202050324535505 
0.008713521261663212 
0.01183566856860751 
0 
0.003202050324535505 
-0.008713521261663212 
-0.004142690190702645 
-0.000807629711904997 
-0.001690525175231146 
0.0004096250217261639 
0.0004345574523148024 
0.003582262313346209 
0.00613999758146341 
0 
0.0004345574523148024 
-0.003582262313346209 
-0.001690525175231146 
-0.0004096250217261639 
-0.0004702150248315262 
-0.002121757631856922 
-0.003212718378549744 
2.878067305952411e-05 
-0.001175372573699821 
0 
-0.003212718378549744 
-2.878067305952411e-05 
-0.0004702150248315262 
0.002121757631856922 
0.003606851775037099 
-0.002333909754365625 
-0.003135667872560902 
-0.006622982502551304 
-0.009460922392566837 
0 
-0.003135667872560902 
0.006622982502551304 
0.003606851775037099 
0.002333909754365625 
0.005706407973825689 
-0.009373009746460119 
-0.0127137525482664 
-0.01645773181029407 
-0.02773972337904146 
0 
-0.0127137525482664 
0.01645773181029407 
0.005706407973825689 
0.009373009746460119 
0.009900036726912068 
-0.004438228446500673 
-0.007808784389652442 
-0.01856473538476909 
-0.02561048332894149 
0 
-0.007808784389652442 
0.01856473538476909 
0.009900036726912068 
0.004438228446500673 
0.009073197712765475 
-0.002423474563882675 
-0.005400624335999366 
-0.0170220716021174 
-0.02328855209986768 
0 
-0.005400624335999366 
0.0170220716021174 
0.009073197712765475 
0.002423474563882675 
0.007473982795935622 
-0.002289745032163221 
-0.004884575283456859 
-0.01382822719517914 
-0.01898939838601479 
0 
-0.004884575283456859 
0.01382822719517914 
0.007473982795935622 
0.002289745032163221 
0.008531844358164951 
-0.00557021785037046 
-0.008581664952751223 
-0.01441154983151432 
-0.0193913157911409 
0 
-0.008581664952751223 
0.01441154983151432 
0.008531844358164951 
0.00557021785037046 
0.00652569101321521 
-0.001564309623392877 
-0.003547618679383796 
-0.01080042257786662 
-0.01435759858421372 
0 
-0.003547618679383796 
0.01080042257786662 
0.00652569101321521 
0.001564309623392877 
0.006068341884673561 
-0.00121893042655107 
-0.002586894940933538 
-0.009394884853395839 
-0.01113637300499771 
0 
-0.002586894940933538 
0.009394884853395839 
0.006068341884673561 
0.00121893042655107 
0.0003635498800362731 
0.0006592573806498347 
0.001698577730303449 
0.0001490895105589069 
7.505088169003822e-05 
0 
0.001698577730303449 
-0.0001490895105589069 
0.0003635498800362731 
-0.0006592573806498347 
0.001552936834053883 
0.0054995203811678 
0.007423590329769629 
0.001194662790643462 
0.005289319898651679 
0 
0.007423590329769629 
-0.001194662790643462 
0.001552936834053883 
-0.0054995203811678 
-0.0005895794252911435 
0.0007769276291029288 
0.002307491730689329 
0.001653629540851164 
0.002348663875132307 
0 
0.002307491730689329 
-0.001653629540851164 
-0.0005895794252911435 
-0.0007769276291029288 
0.003508262345645362 
-0.002458988951796366 
-0.004406981061853566 
-0.009129463542240781 
-0.01502122512156832 
0 
-0.004406981061853566 
0.009129463542240781 
0.003508262345645362 
0.002458988951796366 
0.0005908042370709689 
-0.0002012756130613682 
-0.001707175131747182 
-0.004916839227513713 
-0.009343843837356813 
0 
-0.001707175131747182 
0.004916839227513713 
0.0005908042370709689 
0.0002012756130613682 
-0.001624515288429562 
0.0008275620479430523 
0.001372955086158032 
0.003568711735927848 
0.005880613774182428 
0 
0.001372955086158032 
-0.003568711735927848 
-0.001624515288429562 
-0.0008275620479430523 
-0.0001120721769434135 
0.000839407051321279 
0.001659500845096817 
0.0007366962009217674 
0.001078346463908124 
0 
0.001659500845096817 
-0.0007366962009217674 
-0.0001120721769434135 
-0.000839407051321279 
0.005258757783726574 
-0.002327203801411783 
-0.004357611585958932 
-0.008092848716346825 
-0.01043114861937199 
0 
-0.004357611585958932 
0.008092848716346825 
0.005258757783726574 
0.002327203801411783 
0.007055519339140465 
-0.001226098644908374 
-0.003003587242383618 
-0.01253168384067286 
-0.01714671908355432 
0 
-0.003003587242383618 
0.01253168384067286 
0.007055519339140465 
0.001226098644908374 
0.008859915553233157 
-0.003794723211781461 
-0.007434314769568294 
-0.0167756266813726 
-0.02230846527491866 
0 
-0.007434314769568294 
0.0167756266813726 
0.008859915553233157 
0.003794723211781461 
0.003694632292380094 
-0.0108815790288885 
-0.01597415736200333 
-0.01563652746464862 
-0.02933889918413297 
0 
-0.01597415736200333 
0.01563652746464862 
0.003694632292380094 
0.0108815790288885 
0.005400230503299915 
-0.001167677466483688 
-0.003061429053423628 
-0.009460890713380471 
-0.01226773059508367 
0 
-0.003061429053423628 
0.009460890713380471 
0.005400230503299915 
0.001167677466483688 
0.004307355977519003 
-0.001509418787685214 
-0.00305609052267803 
-0.008723253607661749 
-0.01233116140957054 
0 
-0.00305609052267803 
0.008723253607661749 
0.004307355977519003 
0.001509418787685214 
0.004917870124624519 
-0.001030031710986505 
-0.002422275513739583 
-0.009787706281307216 
-0.01341155406161972 
0 
-0.002422275513739583 
0.009787706281307216 
0.004917870124624519 
0.001030031710986505 
0.008414581003005265 
-0.004590097603982398 
-0.007788353387823388 
-0.01502780936155633 
-0.02089232264931055 
0 
-0.007788353387823388 
0.01502780936155633 
0.008414581003005265 
0.004590097603982398 
0.004791626104846789 
-0.00248500324777098 
-0.004146145648454447 
-0.008115221388027977 
-0.01067587473359953 
0 
-0.004146145648454447 
0.008115221388027977 
0.004791626104846789 
0.00248500324777098 
0.001060560137007262 
0.00189829258748986 
0.004131217470802629 
0.004652824774985643 
0.01074435245967345 
0 
0.004131217470802629 
-0.004652824774985643 
0.001060560137007262 
-0.00189829258748986 
0.001704580495582459 
0.007360530472036671 
0.009766792107206865 
0.003952189324125916 
0.01181485773336093 
0 
0.009766792107206865 
-0.003952189324125916 
0.001704580495582459 
-0.007360530472036671 
0.01439724196223729 
0.02769747305256971 
0.04768275504521728 
0.0162780794220759 
0.05988457251807745 
0 
0.04768275504521728 
-0.0162780794220759 
0.01439724196223729 
-0.02769747305256971 
-0.006690062824265111 
0.009752974946030619 
0.01205133484128774 
0.01415692307358134 
0.02179673455476542 
0 
0.01205133484128774 
-0.01415692307358134 
-0.006690062824265111 
-0.009752974946030619 
-0.002404522950597242 
-0.003011680885041749 
-0.003341803810514535 
0.001764975673720139 
0.0002653223157056502 
0 
-0.003341803810514535 
-0.001764975673720139 
-0.002404522950597242 
0.003011680885041749 
0.0004736672486908746 
-0.00283482816975038 
-0.003515886553327288 
-0.0004106630312965551 
-0.000895394962007766 
0 
-0.003515886553327288 
0.0004106630312965551 
0.0004736672486908746 
0.00283482816975038 
0.0001510826842594122 
-0.002057295934707849 
-0.002568244742549423 
0.000300827923679492 
0.0004558298332439812 
0 
-0.002568244742549423 
-0.000300827923679492 
0.0001510826842594122 
0.002057295934707849 
0.003704693253310084 
-0.003201107283345103 
-0.004500697307050219 
-0.005054214061958081 
-0.006361758935656927 
0 
-0.004500697307050219 
0.005054214061958081 
0.003704693253310084 
0.003201107283345103 
0.008489225545999152 
-0.004438613138659907 
-0.007552982004994558 
-0.01244896773477909 
-0.01494063589874142 
0 
-0.007552982004994558 
0.01244896773477909 
0.008489225545999152 
0.004438613138659907 
0.00860087417321017 
-0.01016112134605067 
-0.01416883018158923 
-0.0182028502258779 
-0.02842821048030719 
0 
-0.01416883018158923 
0.0182028502258779 
0.00860087417321017 
0.01016112134605067 
0.008722276525134348 
-0.005198136345923265 
-0.009685861334174997 
-0.01622961065440249 
-0.0209105176085432 
0 
-0.009685861334174997 
0.01622961065440249 
0.008722276525134348 
0.005198136345923265 
0.007263765950246156 
-0.00352482613195122 
-0.006997495519768959 
-0.01112694225760597 
-0.01334199469702339 
0 
-0.006997495519768959 
0.01112694225760597 
0.007263765950246156 
0.00352482613195122 
0.004045444281771914 
-0.001213702198393886 
-0.003363343091415921 
-0.006901540987713845 
-0.008057798197460582 
0 
-0.003363343091415921 
0.006901540987713845 
0.004045444281771914 
0.001213702198393886 
0.00427789751872249 
-0.002655763591806483 
-0.002772840633407318 
-0.004626543948033572 
-0.005045225570775834 
0 
-0.002772840633407318 
0.004626543948033572 
0.00427789751872249 
0.002655763591806483 
0.002891334699630431 
-0.001230175847723278 
-0.00253445675071766 
-0.006136570768274034 
-0.008435458480113475 
0 
-0.00253445675071766 
0.006136570768274034 
0.002891334699630431 
0.001230175847723278 
0.002226508404309256 
-0.003020343093523637 
-0.003057279411009518 
-0.002854125588336502 
-0.003744962682159118 
0 
-0.003057279411009518 
0.002854125588336502 
0.002226508404309256 
0.003020343093523637 
-0.000924319214576673 
0.004937173276475462 
0.008970687091822889 
0.007996996965935503 
0.01623254734266702 
0 
0.008970687091822889 
-0.007996996965935503 
-0.000924319214576673 
-0.004937173276475462 
0.009900970790396662 
0.02250902747689145 
0.04018916686367185 
0.01356255111977996 
0.04892732316241716 
0 
0.04018916686367185 
-0.01356255111977996 
0.009900970790396662 
-0.02250902747689145 
0.01192138694326239 
0.0249300909765857 
0.04709127541275175 
0.01785328922698742 
0.06261945882311726 
0 
0.04709127541275175 
-0.01785328922698742 
0.01192138694326239 
-0.0249300909765857 
-0.001140607249473725 
0.01211688494599042 
0.01826733488428795 
0.01204011811658488 
0.02549463330808861 
0 
0.01826733488428795 
-0.01204011811658488 
-0.001140607249473725 
-0.01211688494599042 
-0.001585633691060833 
0.001341662274049151 
0.0005901671795069315 
0.00158920940574482 
0.000508419670399114 
0 
0.0005901671795069315 
-0.00158920940574482 
-0.001585633691060833 
-0.001341662274049151 
0.003069477597792878 
-0.002570492505194735 
-0.003626528767793153 
-0.005260825612165733 
-0.008305069654869669 
0 
-0.003626528767793153 
0.005260825612165733 
0.003069477597792878 
0.002570492505194735 
0.0009153941785075547 
-0.002609673342003378 
-0.004102372664792611 
-0.00257367942768877 
-0.005157584199036797 
0 
-0.004102372664792611 
0.00257367942768877 
0.0009153941785075547 
0.002609673342003378 
0.004260144468498024 
-0.001673300246072689 
-0.003540873721454112 
-0.008753882755855697 
-0.01164808370568888 
0 
-0.003540873721454112 
0.008753882755855697 
0.004260144468498024 
0.001673300246072689 
0.006683420929411992 
-0.0005811958629788173 
-0.00338852468048463 
-0.01166713048967417 
-0.01452042051855339 
0 
-0.00338852468048463 
0.01166713048967417 
0.006683420929411992 
0.0005811958629788173 
0.005678126419823001 
-0.0009867575487717451 
-0.00362099887884353 
-0.01071074556013845 
-0.01327605140562852 
0 
-0.00362099887884353 
0.01071074556013845 
0.005678126419823001 
0.0009867575487717451 
0.003777625659260327 
-0.01007305790633322 
-0.01251589360056309 
-0.009413591299408844 
-0.01699901595241761 
0 
-0.01251589360056309 
0.009413591299408844 
0.003777625659260327 
0.01007305790633322 
0.006209440677153917 
-0.003262107982258161 
-0.005584113785425721 
-0.0102256876342032 
-0.01351908140055424 
0 
-0.005584113785425721 
0.0102256876342032 
0.006209440677153917 
0.003262107982258161 
-8.137391810232817e-05 
-0.001876594576314309 
-0.001764860783149808 
0.00111632128415565 
0.001309851838380035 
0 
-0.001764860783149808 
-0.00111632128415565 
-8.137391810232817e-05 
0.001876594576314309 
0.005173339978097167 
-0.00315927776879066 
-0.004879830856088183 
-0.004239864917053152 
-0.001171463813688336 
0 
-0.004879830856088183 
0.004239864917053152 
0.005173339978097167 
0.00315927776879066 
0.003158339996711836 
-0.003935530402643186 
-0.004590754855366686 
-0.005126360620335176 
-0.007929001406852799 
0 
-0.004590754855366686 
0.005126360620335176 
0.003158339996711836 
0.003935530402643186 
-0.0002786073596323884 
-0.001248707455599015 
-0.0006935350859981184 
0.001233367860104993 
0.001574756873929443 
0 
-0.0006935350859981184 
-0.001233367860104993 
-0.0002786073596323884 
0.001248707455599015 
-0.0008398088997012294 
0.007110029160280911 
0.01404817915119401 
0.01133337340906627 
0.02531558027702334 
0 
0.01404817915119401 
-0.01133337340906627 
-0.0008398088997012294 
-0.007110029160280911 
0.00179755746614769 
0.02670278651918366 
0.03675164490198329 
0.02223444304278526 
0.05115447002301632 
0 
0.03675164490198329 
-0.02223444304278526 
0.00179755746614769 
-0.02670278651918366 
0.001193284392486169 
0.00322686767663247 
0.00292844500349818 
-0.003622330985928585 
-0.004998260011155132 
0 
0.00292844500349818 
0.003622330985928585 
0.001193284392486169 
-0.00322686767663247 
0.003346093624461384 
-0.003132871017568382 
-0.00442578705049661 
-0.007271670882453409 
-0.01093462040158958 
0 
-0.00442578705049661 
0.007271670882453409 
0.003346093624461384 
0.003132871017568382 
0.004976944816650492 
-0.004336532207776216 
-0.007814931443080035 
-0.008605215858208372 
-0.01145899660036994 
0 
-0.007814931443080035 
0.008605215858208372 
0.004976944816650492 
0.004336532207776216 
0.006348160024586737 
-0.002839120362745939 
-0.005311821622356687 
-0.009945899603978859 
-0.01240122373528949 
0 
-0.005311821622356687 
0.009945899603978859 
0.006348160024586737 
0.002839120362745939 
0.007383308559105054 
-9.652487805390305e-05 
-0.002051759519141624 
-0.01447537157579526 
-0.01966662196773093 
0 
-0.002051759519141624 
0.01447537157579526 
0.007383308559105054 
9.652487805390305e-05 
0.003848843974225136 
0.0006822574204287907 
-0.001050937156412485 
-0.008783224505339967 
-0.01101997721349232 
0 
-0.001050937156412485 
0.008783224505339967 
0.003848843974225136 
-0.0006822574204287907 
0.005383909093761313 
0.000252906278182349 
-0.002836887926366427 
-0.009625538399390234 
-0.009602334063658109 
0 
-0.002836887926366427 
0.009625538399390234 
0.005383909093761313 
-0.000252906278182349 
0.00781038038099295 
-0.001628037980040505 
-0.004858582512936327 
-0.01377966516958272 
-0.01781539043757217 
0 
-0.004858582512936327 
0.01377966516958272 
0.00781038038099295 
0.001628037980040505 
0.004213470930258264 
-7.404161985510619e-05 
-0.000739920964401653 
-0.01146208723698283 
-0.01687581237964393 
0 
-0.000739920964401653 
0.01146208723698283 
0.004213470930258264 
7.404161985510619e-05 
0.003810732514938391 
0.001792377796134205 
-0.0002385574809235866 
-0.01135951683255219 
-0.01519276357050335 
0 
-0.0002385574809235866 
0.01135951683255219 
0.003810732514938391 
-0.001792377796134205 
0.005351195756348114 
0.003193611610155152 
0.0004787510547119311 
-0.01244141286942021 
-0.01547512592922782 
0 
0.0004787510547119311 
0.01244141286942021 
0.005351195756348114 
-0.003193611610155152 
0.006040590409109999 
0.001475336630409002 
-0.001741318927682487 
-0.01112278733872107 
-0.01308264946817237 
0 
-0.001741318927682487 
0.01112278733872107 
0.006040590409109999 
-0.001475336630409002 
0.004403528578134837 
-0.0008687323796484504 
-0.001760225402333217 
-0.009837789458518794 
-0.01406674076482221 
0 
-0.001760225402333217 
0.009837789458518794 
0.004403528578134837 
0.0008687323796484504 
0.003935605451298237 
-0.003954349980635542 
-0.005896027004734054 
-0.008580723776997661 
-0.0116574630580351 
0 
-0.005896027004734054 
0.008580723776997661 
0.003935605451298237 
0.003954349980635542 
0.002209287166035633 
-0.001898696714811632 
-0.002326444691110858 
-0.006816658982670164 
-0.01127835425689153 
0 
-0.002326444691110858 
0.006816658982670164 
0.002209287166035633 
0.001898696714811632 
0.005829113503356215 
-0.0005802112285231027 
-0.001647298570140009 
-0.008934059032606202 
-0.01053608247589839 
0 
-0.001647298570140009 
0.008934059032606202 
0.005829113503356215 
0.0005802112285231027 
0.001543637576395733 
0.00112467700576435 
0.002138004719201209 
-0.00415549504538029 
-0.006673416955390125 
0 
0.002138004719201209 
0.00415549504538029 
0.001543637576395733 
-0.00112467700576435 
-0.0007577714135950145 
-0.006883088244423016 
-0.008395481600711586 
-0.005106833200219109 
-0.01338372197507586 
0 
-0.008395481600711586 
0.005106833200219109 
-0.0007577714135950145 
0.006883088244423016 
0.00509832227068805 
-0.003814509195360813 
-0.006940959082342209 
-0.01144432894481905 
-0.01681769274490077 
0 
-0.006940959082342209 
0.01144432894481905 
0.00509832227068805 
0.003814509195360813 
0.003906750994235362 
-0.0002083045735077939 
-0.00189451382167312 
-0.008806940113513741 
-0.01219491018411002 
0 
-0.00189451382167312 
0.008806940113513741 
0.003906750994235362 
0.0002083045735077939 
0.006127270588458268 
-0.0006256411481400898 
-0.00333768829009985 
-0.01137982261892602 
-0.0137493156162509 
0 
-0.00333768829009985 
0.01137982261892602 
0.006127270588458268 
0.0006256411481400898 
0.00601159832570244 
0.0009060503729336059 
-0.001921768681219386 
-0.01213631733157431 
-0.01452499406891564 
0 
-0.001921768681219386 
0.01213631733157431 
0.00601159832570244 
-0.0009060503729336059 
0.004224242618421977 
-5.865211585359907e-05 
-0.001400088179570128 
-0.009385882023539772 
-0.0131246574158497 
0 
-0.001400088179570128 
0.009385882023539772 
0.004224242618421977 
5.865211585359907e-05 
0.005048125676461781 
-0.0005957022443270826 
-0.002966786955282848 
-0.01056617404546876 
-0.01446524656108038 
0 
-0.002966786955282848 
0.01056617404546876 
0.005048125676461781 
0.0005957022443270826 
0.007823918289997664 
-0.002798477398410134 
-0.006976089792001513 
-0.0148126491522342 
-0.02009428070682711 
0 
-0.006976089792001513 
0.0148126491522342 
0.007823918289997664 
0.002798477398410134 
0.003135855939657084 
0.0005926690346829892 
-0.0009172130419011229 
-0.007916122121628759 
-0.01051697791330265 
0 
-0.0009172130419011229 
0.007916122121628759 
0.003135855939657084 
-0.0005926690346829892 
0.004664627754158001 
0.000848094615234703 
-0.001762373741623675 
-0.01005325112600939 
-0.01215970866295934 
0 
-0.001762373741623675 
0.01005325112600939 
0.004664627754158001 
-0.000848094615234703 
0.006118477412111864 
-0.0007313544533786614 
-0.003230717240938524 
-0.010553973233423 
-0.01303868093790171 
0 
-0.003230717240938524 
0.010553973233423 
0.006118477412111864 
0.0007313544533786614 
0.003527059397320756 
-0.003238550383334166 
-0.004729249945175329 
-0.005080707307096886 
-0.006305034061963522 
0 
-0.004729249945175329 
0.005080707307096886 
0.003527059397320756 
0.003238550383334166 
0.002273660484045839 
-0.003280347494704237 
-0.004856278807473381 
-0.002936101837074719 
-0.002661992207805643 
0 
-0.004856278807473381 
0.002936101837074719 
0.002273660484045839 
0.003280347494704237 
-0.0004583933774245549 
-0.001980091366983958 
-0.001947253633408766 
-0.002863356098614975 
-0.005806255121495338 
0 
-0.001947253633408766 
0.002863356098614975 
-0.0004583933774245549 
0.001980091366983958 
-0.001560765055482808 
0.001622309653828197 
0.001266296941232231 
-0.002012278248269949 
-0.006961508488447697 
0 
0.001266296941232231 
0.002012278248269949 
-0.001560765055482808 
-0.001622309653828197 
0.004422137312088957 
-0.008387462313972248 
-0.01013606009669766 
-0.01340502106393971 
-0.02259196724591063 
0 
-0.01013606009669766 
0.01340502106393971 
0.004422137312088957 
0.008387462313972248 
0.003036694008307325 
-0.005748583981644758 
-0.007487533107733603 
-0.008715995358833934 
-0.01550548925395027 
0 
-0.007487533107733603 
0.008715995358833934 
0.003036694008307325 
0.005748583981644758 
0.005584045968218357 
-0.002998479803844122 
-0.005664850241787036 
-0.007399286336988578 
-0.008090981770766512 
0 
-0.005664850241787036 
0.007399286336988578 
0.005584045968218357 
0.002998479803844122 
0.006072513939536424 
-0.003035774784912523 
-0.005352760150421811 
-0.009949439237546046 
-0.01320732698297108 
0 
-0.005352760150421811 
0.009949439237546046 
0.006072513939536424 
0.003035774784912523 
0.003065975527646063 
-0.0009697045627904574 
-0.002334323851335303 
-0.008401783779068419 
-0.01267812701035746 
0 
-0.002334323851335303 
0.008401783779068419 
0.003065975527646063 
0.0009697045627904574 
0.003705301675795782 
-0.001312830714663435 
-0.003615986774199076 
-0.004865970065711413 
-0.004877938355600858 
0 
-0.003615986774199076 
0.004865970065711413 
0.003705301675795782 
0.001312830714663435 
0.005731083464255673 
-0.0009725322999389505 
-0.002827191674952978 
-0.01046752161853905 
-0.01370630723547796 
0 
-0.002827191674952978 
0.01046752161853905 
0.005731083464255673 
0.0009725322999389505 
0.003467187708276035 
-0.006011242372130911 
-0.008527215201703015 
-0.007398522852671818 
-0.01253130878204576 
0 
-0.008527215201703015 
0.007398522852671818 
0.003467187708276035 
0.006011242372130911 
0.003546087832562434 
-0.002461516534773802 
-0.004316958371667143 
-0.01016350784668438 
-0.01591461802412502 
0 
-0.004316958371667143 
0.01016350784668438 
0.003546087832562434 
0.002461516534773802 
0.00440716791930481 
0.0008692813340465107 
-0.00123257212491907 
-0.008958174082230184 
-0.01081437627668272 
0 
-0.00123257212491907 
0.008958174082230184 
0.00440716791930481 
-0.0008692813340465107 
0.004060586813020238 
-0.0007048046345504561 
-0.003300805378995376 
-0.008786642191399524 
-0.01041446552089399 
0 
-0.003300805378995376 
0.008786642191399524 
0.004060586813020238 
0.0007048046345504561 
0.003684823654133714 
0.0005904552200075989 
-0.002243811564174024 
-0.006841196023945712 
-0.006980317790805084 
0 
-0.002243811564174024 
0.006841196023945712 
0.003684823654133714 
-0.0005904552200075989 
0.002986922362799694 
0.002840740390287051 
0.001914738081146996 
-0.008411534145617312 
-0.01138477352130377 
0 
0.001914738081146996 
0.008411534145617312 
0.002986922362799694 
-0.002840740390287051 
0.003048825441694821 
0.002938885631288267 
0.001835259936710282 
-0.005721376901280365 
-0.005913697507975389 
0 
0.001835259936710282 
0.005721376901280365 
0.003048825441694821 
-0.002938885631288267 
0.002885695537446592 
0.0008173656177650886 
0.0003414568038541235 
-0.006105492226723575 
-0.008657792153131595 
0 
0.0003414568038541235 
0.006105492226723575 
0.002885695537446592 
-0.0008173656177650886 
0.001696845181162916 
-0.01281008392313516 
-0.0230464547740923 
-0.01723684340154816 
-0.03865573141223011 
0 
-0.0230464547740923 
0.01723684340154816 
0.001696845181162916 
0.01281008392313516 
0.007736682865021179 
-0.002131202159306101 
-0.002279517994143029 
-0.01633771353673605 
-0.0225560610633623 
0 
-0.002279517994143029 
0.01633771353673605 
0.007736682865021179 
0.002131202159306101 
0.006544164349830995 
-0.002279562735459229 
-0.004825150634366853 
-0.01566558083324211 
-0.02308457741750842 
0 
-0.004825150634366853 
0.01566558083324211 
0.006544164349830995 
0.002279562735459229 
0.006658709544589428 
-0.0005267518371243679 
-0.003211484724243992 
-0.01220728344521861 
-0.01526109078636079 
0 
-0.003211484724243992 
0.01220728344521861 
0.006658709544589428 
0.0005267518371243679 
0.00576502612870931 
0.0001706182430992276 
-0.0005995755993687659 
-0.01310296705452464 
-0.01939105235941868 
0 
-0.0005995755993687659 
0.01310296705452464 
0.00576502612870931 
-0.0001706182430992276 
0.006023144569538543 
-0.001955169971392051 
-0.00442142642199669 
-0.008042668016041624 
-0.009076993753794602 
0 
-0.00442142642199669 
0.008042668016041624 
0.006023144569538543 
0.001955169971392051 
0.006059503853927667 
-0.0005976835096193652 
-0.003611699569833014 
-0.00901419949191835 
-0.009632532677141047 
0 
-0.003611699569833014 
0.00901419949191835 
0.006059503853927667 
0.0005976835096193652 
0.004798519365523862 
-0.0003785697562740103 
-0.002701975989688743 
-0.00924170716106339 
-0.01098428500946754 
0 
-0.002701975989688743 
0.00924170716106339 
0.004798519365523862 
0.0003785697562740103 
0.004175627120841507 
-0.002775975133407129 
-0.004654531660272288 
-0.01075933207341877 
-0.01678152178749994 
0 
-0.004654531660272288 
0.01075933207341877 
0.004175627120841507 
0.002775975133407129 
0.00608750193387483 
-0.009107181207707368 
-0.01254839223880222 
-0.009756588847608629 
-0.01534238413163154 
0 
-0.01254839223880222 
0.009756588847608629 
0.00608750193387483 
0.009107181207707368 
0.002308197571807453 
-0.001137333699950144 
-0.003113572560937778 
-0.004120372764566367 
-0.003392986243932105 
0 
-0.003113572560937778 
0.004120372764566367 
0.002308197571807453 
0.001137333699950144 
0.003042661070032817 
-0.003010702022491726 
-0.004734036790073574 
-0.002725788427642762 
-0.001990133208963971 
0 
-0.004734036790073574 
0.002725788427642762 
0.003042661070032817 
0.003010702022491726 
0.002894816902207237 
0.0002901653687074284 
-0.001059331860458971 
-0.005361871234524109 
-0.006728640207147732 
0 
-0.001059331860458971 
0.005361871234524109 
0.002894816902207237 
-0.0002901653687074284 
0.002035523355209215 
-0.0009031552589733772 
-0.001686862466511431 
-0.003493532402590877 
-0.004343424083827191 
0 
-0.001686862466511431 
0.003493532402590877 
0.002035523355209215 
0.0009031552589733772 
-0.0009061168713105734 
-3.895234922464531e-05 
0.0005127979189743889 
0.001054302626175894 
0.001052897536118267 
0 
0.0005127979189743889 
-0.001054302626175894 
-0.0009061168713105734 
3.895234922464531e-05 
-0.00130912251526923 
-3.178965002247022e-05 
0.0002456803109731781 
0.003957081843893349 
0.005652698671292916 
0 
0.0002456803109731781 
-0.003957081843893349 
-0.00130912251526923 
3.178965002247022e-05 
0.0009400227700589568 
0.00359649703502435 
0.003185384657879515 
-0.0007404218919171907 
-0.0006963752966043069 
0 
0.003185384657879515 
0.0007404218919171907 
0.0009400227700589568 
-0.00359649703502435 
0.0003541177773818379 
-0.006125209887734124 
-0.0061964598936559 
-0.004910169088480818 
-0.009618361790148027 
0 
-0.0061964598936559 
0.004910169088480818 
0.0003541177773818379 
0.006125209887734124 
0.002425398276388555 
-0.001208686186464102 
-0.001623445933574457 
-0.003474568360067006 
-0.004754907358624678 
0 
-0.001623445933574457 
0.003474568360067006 
0.002425398276388555 
0.001208686186464102 
0.001030941438461162 
-0.0007639760463392652 
-0.002065882812967253 
-0.003115266207452664 
-0.005331707610765912 
0 
-0.002065882812967253 
0.003115266207452664 
0.001030941438461162 
0.0007639760463392652 
0.004142268120107963 
-0.003467630225762317 
-0.00548526396635181 
-0.01004985615085845 
-0.01489346582856313 
0 
-0.00548526396635181 
0.01004985615085845 
0.004142268120107963 
0.003467630225762317 
0.005397066118096754 
-0.001585320857500843 
-0.002974587504556721 
-0.010525754241687 
-0.01458268697152928 
0 
-0.002974587504556721 
0.010525754241687 
0.005397066118096754 
0.001585320857500843 
0.002458957511742258 
-0.002341938749341902 
-0.003167812013318056 
-0.003679647478908469 
-0.004388202653785703 
0 
-0.003167812013318056 
0.003679647478908469 
0.002458957511742258 
0.002341938749341902 
0.004025266538815217 
-0.002506629319863514 
-0.003812300947842614 
-0.006552460601815299 
-0.00862433296753019 
0 
-0.003812300947842614 
0.006552460601815299 
0.004025266538815217 
0.002506629319863514 
0.004406726977178355 
-0.005349480164472646 
-0.01077459930221587 
-0.01482914620694623 
-0.02588329962531092 
0 
-0.01077459930221587 
0.01482914620694623 
0.004406726977178355 
0.005349480164472646 
0.007688338495069067 
-0.001437256748329985 
-0.003240800971910965 
-0.0160232780766932 
-0.02341773414800232 
0 
-0.003240800971910965 
0.0160232780766932 
0.007688338495069067 
0.001437256748329985 
0.003443742915516686 
0.0003474603248143211 
-0.001976950767077205 
-0.008159196080683627 
-0.01023804575021757 
0 
-0.001976950767077205 
0.008159196080683627 
0.003443742915516686 
-0.0003474603248143211 
0.005183224521447184 
0.0003103368825916419 
0.0008130722918937398 
-0.00750518705919937 
-0.007644670401244162 
0 
0.0008130722918937398 
0.00750518705919937 
0.005183224521447184 
-0.0003103368825916419 
0.005569374506572092 
-0.002573627354664197 
-0.003601627175918281 
-0.009459487328033011 
-0.0122543313190747 
0 
-0.003601627175918281 
0.009459487328033011 
0.005569374506572092 
0.002573627354664197 
0.003042787042393378 
-0.006372546607218751 
-0.008397598393270408 
-0.008250709437516037 
-0.0130865882849426 
0 
-0.008397598393270408 
0.008250709437516037 
0.003042787042393378 
0.006372546607218751 
0.002434391056005087 
0.0008195393706669585 
0.0008697926560133262 
-0.003118127346267234 
-0.003247744946059256 
0 
0.0008697926560133262 
0.003118127346267234 
0.002434391056005087 
-0.0008195393706669585 
-0.002009473158401181 
0.00514447149459637 
0.006866992735270427 
0.006696131061539466 
0.0120728246565556 
0 
0.006866992735270427 
-0.006696131061539466 
-0.002009473158401181 
-0.00514447149459637 
0.007252601193929908 
0.01084451425829361 
0.0204860144593544 
0.005071542441995436 
0.02347248233692771 
0 
0.0204860144593544 
-0.005071542441995436 
0.007252601193929908 
-0.01084451425829361 
-0.001585200030548292 
0.004918559971740791 
0.00674626198318375 
0.004767208468244138 
0.008550214221493808 
0 
0.00674626198318375 
-0.004767208468244138 
-0.001585200030548292 
-0.004918559971740791 
0.0004645286003859221 
-0.005517533293228936 
-0.006103497465928297 
-0.003860178725104519 
-0.008881269319338055 
0 
-0.006103497465928297 
0.003860178725104519 
0.0004645286003859221 
0.005517533293228936 
0.003051883262707886 
-0.002950185561960802 
-0.003857045627296033 
-0.006554052113847066 
-0.009730745090788669 
0 
-0.003857045627296033 
0.006554052113847066 
0.003051883262707886 
0.002950185561960802 
0.003371547779462866 
-0.002109848439502397 
-0.003747642475086652 
-0.008607472520985149 
-0.01270111887387202 
0 
-0.003747642475086652 
0.008607472520985149 
0.003371547779462866 
0.002109848439502397 
0.007070051095474309 
-0.003866240218687366 
-0.006639785498503546 
-0.01200653473565493 
-0.01596381971227831 
0 
-0.006639785498503546 
0.01200653473565493 
0.007070051095474309 
0.003866240218687366 
0.008201486578432171 
-0.001665751702254222 
-0.004359521462297372 
-0.01317783196144625 
-0.01646057286530713 
0 
-0.004359521462297372 
0.01317783196144625 
0.008201486578432171 
0.001665751702254222 
0.005214795704693281 
-0.0001864479485157429 
-0.002681801328381116 
-0.00883563511735035 
-0.01067759802801675 
0 
-0.002681801328381116 
0.00883563511735035 
0.005214795704693281 
0.0001864479485157429 
0.005253454434579916 
-0.001081735683821192 
-0.00287743943640895 
-0.0123680947851614 
-0.01770563698607368 
0 
-0.00287743943640895 
0.0123680947851614 
0.005253454434579916 
0.001081735683821192 
0.005686313803961636 
-0.00644101508629844 
-0.008551977883397609 
-0.01160366327111721 
-0.01792136315064985 
0 
-0.008551977883397609 
0.01160366327111721 
0.005686313803961636 
0.00644101508629844 
0.003036320345489241 
-0.003015965068696333 
-0.004743580157478063 
-0.004471586162617919 
-0.005770206010250625 
0 
-0.004743580157478063 
0.004471586162617919 
0.003036320345489241 
0.003015965068696333 
0.002518440295988796 
-0.002792776006192098 
-0.00342122729106414 
-0.0008864079868560146 
0.0005863788981878455 
0 
-0.00342122729106414 
0.0008864079868560146 
0.002518440295988796 
0.002792776006192098 
0.001162435520738754 
-0.001759891327939131 
-0.00215716971675544 
-0.0008160090829497248 
0.0008280601783569817 
0 
-0.00215716971675544 
0.0008160090829497248 
0.001162435520738754 
0.001759891327939131 
0.002864812874021039 
-0.001814365581475446 
-0.0008045650274312763 
-0.001926932948196682 
-0.001308582182132896 
0 
-0.0008045650274312763 
0.001926932948196682 
0.002864812874021039 
0.001814365581475446 
-0.002320009607217147 
0.00424478652693843 
0.005810943689674514 
0.007301808474579373 
0.01172528555938847 
0 
0.005810943689674514 
-0.007301808474579373 
-0.002320009607217147 
-0.00424478652693843 
-0.0009408054626902214 
0.008125841054980406 
0.01143999334948336 
0.008222305661189538 
0.01637320338584981 
0 
0.01143999334948336 
-0.008222305661189538 
-0.0009408054626902214 
-0.008125841054980406 
-0.0008923327984201513 
0.003911558690439023 
0.007126206258434411 
0.005616081413835653 
0.01113196981295506 
0 
0.007126206258434411 
-0.005616081413835653 
-0.0008923327984201513 
-0.003911558690439023 
0.007190685930101622 
0.01980563722015372 
0.03254237708369048 
0.01385358053030677 
0.04265051713073948 
0 
0.03254237708369048 
-0.01385358053030677 
0.007190685930101622 
-0.01980563722015372 
-0.007256247327639546 
0.008508459534464878 
0.0107887025232195 
0.01419767398916281 
0.0209115874048089 
0 
0.0107887025232195 
-0.01419767398916281 
-0.007256247327639546 
-0.008508459534464878 
-0.006901870289658114 
0.000622807056768049 
0.001817996915462414 
0.009690397464228392 
0.01109268384143389 
0 
0.001817996915462414 
-0.009690397464228392 
-0.006901870289658114 
-0.000622807056768049 
-0.002605980534142106 
0.002297892018528293 
0.003928112735005019 
0.005674859888436317 
0.008482321444029653 
0 
0.003928112735005019 
-0.005674859888436317 
-0.002605980534142106 
-0.002297892018528293 
-0.0005238472428007275 
0.001874063902713275 
0.001217484173111382 
0.00173726271413664 
0.003960690496813891 
0 
0.001217484173111382 
-0.00173726271413664 
-0.0005238472428007275 
-0.001874063902713275 
-0.003375099073897142 
-0.001382059890706509 
-0.001160704646745121 
0.006807711710135137 
0.01023201787369252 
0 
-0.001160704646745121 
-0.006807711710135137 
-0.003375099073897142 
0.001382059890706509 
-0.003169306323471083 
-0.002103691873435004 
-0.000466545897831012 
0.004947787496575064 
0.00503995503070207 
0 
-0.000466545897831012 
-0.004947787496575064 
-0.003169306323471083 
0.002103691873435004 
0.003520262419654663 
-0.006975319393992964 
-0.009706607551780039 
-0.009438279304495041 
-0.01604262880734591 
0 
-0.009706607551780039 
0.009438279304495041 
0.003520262419654663 
0.006975319393992964 
0.003856249248597879 
-0.005831668830625142 
-0.00925027346392945 
-0.008477355275470357 
-0.01250224846907626 
0 
-0.00925027346392945 
0.008477355275470357 
0.003856249248597879 
0.005831668830625142 
0.00309720173420805 
-0.00124275632529057 
-0.00221290838905084 
-0.005337012240354668 
-0.007248749000328533 
0 
-0.00221290838905084 
0.005337012240354668 
0.00309720173420805 
0.00124275632529057 
-0.001601702789833018 
0.001054438150125633 
0.0008414662686733777 
0.0004321387102330406 
-0.0003810297868799127 
0 
0.0008414662686733777 
-0.0004321387102330406 
-0.001601702789833018 
-0.001054438150125633 
-0.0006365290219851149 
-0.001706308266594855 
-0.001684475442505733 
0.001222691241111753 
0.000999920137218087 
0 
-0.001684475442505733 
-0.001222691241111753 
-0.0006365290219851149 
0.001706308266594855 
-0.002944951595189501 
-0.001618331355671201 
-0.000886390998241256 
0.007514834019923036 
0.0114893657582097 
0 
-0.000886390998241256 
-0.007514834019923036 
-0.002944951595189501 
0.001618331355671201 
0.0001530080536451743 
0.0009905841131220288 
0.001477392565767573 
0.002065938286854553 
0.004138932300271471 
0 
0.001477392565767573 
-0.002065938286854553 
0.0001530080536451743 
-0.0009905841131220288 
-0.004091202728260749 
0.006797718806879728 
0.01127953302510397 
0.01325812054548907 
0.02272984176973279 
0 
0.01127953302510397 
-0.01325812054548907 
-0.004091202728260749 
-0.006797718806879728 
0.01006948084999635 
0.01830571043532506 
0.03552709555201368 
0.01103462510704377 
0.04338203529474835 
0 
0.03552709555201368 
-0.01103462510704377 
0.01006948084999635 
-0.01830571043532506 
-0.0008591688931406258 
0.008057593116296766 
0.0144422147371981 
0.01004323103901187 
0.02220508026290389 
0 
0.0144422147371981 
-0.01004323103901187 
-0.0008591688931406258 
-0.008057593116296766 
-0.003281747090158791 
-0.004620442026952195 
-0.007073657062245052 
0.001064888168799663 
-0.005070142270129048 
0 
-0.007073657062245052 
-0.001064888168799663 
-0.003281747090158791 
0.004620442026952195 
-0.002205540496183457 
-0.001849845399958443 
-0.002239887326962829 
0.001514156760919008 
-0.0001451042344212444 
0 
-0.002239887326962829 
-0.001514156760919008 
-0.002205540496183457 
0.001849845399958443 
-0.0002774617767372758 
-0.001212627685565954 
-0.0006653516641087516 
0.001359095729410191 
0.002162463917891323 
0 
-0.0006653516641087516 
-0.001359095729410191 
-0.0002774617767372758 
0.001212627685565954 
0.0002459566353340251 
-0.001023829928429967 
-0.001406160231217026 
0.0006178279706625807 
0.001156436483855029 
0 
-0.001406160231217026 
-0.0006178279706625807 
0.0002459566353340251 
0.001023829928429967 
0.001427735930405767 
-0.0001303942830600241 
-0.001114561568014064 
-0.001393332202571052 
-0.0003560987279910866 
0 
-0.001114561568014064 
0.001393332202571052 
0.001427735930405767 
0.0001303942830600241 
0.003467465157761482 
-0.002146195016350255 
-0.002780117932309229 
-0.005375142709558891 
-0.007464004695652964 
0 
-0.002780117932309229 
0.005375142709558891 
0.003467465157761482 
0.002146195016350255 
0.006824395072578909 
-0.001991335298129795 
-0.00455309262532879 
-0.0113981033976974 
-0.01442868936882454 
0 
-0.00455309262532879 
0.0113981033976974 
0.006824395072578909 
0.001991335298129795 
0.003063701348027623 
-0.00888315379094296 
-0.01164551876249185 
-0.007973289199575876 
-0.01447819145943748 
0 
-0.01164551876249185 
0.007973289199575876 
0.003063701348027623 
0.00888315379094296 
-0.000652755416976265 
-0.005747871780287296 
-0.005464794000168928 
0.000905950753302218 
-0.0007550953318309786 
0 
-0.005464794000168928 
-0.000905950753302218 
-0.000652755416976265 
0.005747871780287296 
0.0005691769026338271 
-0.003042108207404577 
-0.002666693901427059 
-0.0008280204088034512 
-0.002091389048267051 
0 
-0.002666693901427059 
0.0008280204088034512 
0.0005691769026338271 
0.003042108207404577 
-0.004179689334708355 
-0.00240266752837218 
-0.003165379737395667 
0.005442200249706793 
0.006052349479388655 
0 
-0.003165379737395667 
-0.005442200249706793 
-0.004179689334708355 
0.00240266752837218 
-0.0004167967272821333 
-0.005401645055453382 
-0.005441711610503137 
-0.001311043930169041 
-0.004436760153089945 
0 
-0.005441711610503137 
0.001311043930169041 
-0.0004167967272821333 
0.005401645055453382 
-0.004778037274080915 
-0.0003985450200838229 
0.0007246444906239619 
0.005936467870300503 
0.005933871813750955 
0 
0.0007246444906239619 
-0.005936467870300503 
-0.004778037274080915 
0.0003985450200838229 
-0.006409281793617222 
0.006883098374511988 
0.01150935930288973 
0.01486892878767707 
0.02363403505708546 
0 
0.01150935930288973 
-0.01486892878767707 
-0.006409281793617222 
-0.006883098374511988 
0.003078567349435897 
0.02456660065719654 
0.03701574165976445 
0.01998696648597783 
0.04985795757136403 
0 
0.03701574165976445 
-0.01998696648597783 
0.003078567349435897 
-0.02456660065719654 
-0.0006881314910916734 
-0.001652728151669534 
-0.002428885678311916 
-0.00293358822282471 
-0.007895469402801697 
0 
-0.002428885678311916 
0.00293358822282471 
-0.0006881314910916734 
0.001652728151669534 
0.00112230284503767 
-0.004519728708480695 
-0.005863536136500918 
-0.004857360895321787 
-0.00832901499863148 
0 
-0.005863536136500918 
0.004857360895321787 
0.00112230284503767 
0.004519728708480695 
0.004085433510083504 
-0.005341358469087518 
-0.007907040974178122 
-0.008763527430411505 
-0.01421524350465957 
0 
-0.007907040974178122 
0.008763527430411505 
0.004085433510083504 
0.005341358469087518 
0.003030210404070748 
-0.001259127855690613 
-0.003751560843195862 
-0.004724529657899038 
-0.004553728341825437 
0 
-0.003751560843195862 
0.004724529657899038 
0.003030210404070748 
0.001259127855690613 
0.002829907002289152 
-0.001685419205410427 
-0.002882544347940519 
-0.005561651337301534 
-0.007074840233932063 
0 
-0.002882544347940519 
0.005561651337301534 
0.002829907002289152 
0.001685419205410427 
0.002370620583779243 
-0.001017742259648274 
-0.002873036474708778 
-0.003418288855113356 
-0.002508147647313806 
0 
-0.002873036474708778 
0.003418288855113356 
0.002370620583779243 
0.001017742259648274 
0.003693929285810482 
0.001346808706195422 
-0.0004241081052052654 
-0.007807863741468761 
-0.009670834932383561 
0 
-0.0004241081052052654 
0.007807863741468761 
0.003693929285810482 
-0.001346808706195422 
0.003585480837409099 
-0.003837689840768389 
-0.006270528041834222 
-0.007869882447257096 
-0.01165846235965498 
0 
-0.006270528041834222 
0.007869882447257096 
0.003585480837409099 
0.003837689840768389 
0.003412711561817425 
0.0002132261073515528 
-0.002892974464489519 
-0.007109966765045616 
-0.007089870742725392 
0 
-0.002892974464489519 
0.007109966765045616 
0.003412711561817425 
-0.0002132261073515528 
0.002551520104868874 
-0.0002146872329529918 
-0.001223357499338889 
-0.005930635492936254 
-0.008171854425375345 
0 
-0.001223357499338889 
0.005930635492936254 
0.002551520104868874 
0.0002146872329529918 
0.004121271739544856 
-0.0008779144549683625 
-0.004295303336778396 
-0.005788619873805662 
-0.005264728080406999 
0 
-0.004295303336778396 
0.005788619873805662 
0.004121271739544856 
0.0008779144549683625 
0.002409831950116745 
-0.003658562839079056 
-0.006637503383629105 
-0.007039219656420117 
-0.01082814717942092 
0 
-0.006637503383629105 
0.007039219656420117 
0.002409831950116745 
0.003658562839079056 
0.003127519850464734 
-0.003424251779813352 
-0.006156503685155103 
-0.006930040101772218 
-0.01040978934987474 
0 
-0.006156503685155103 
0.006930040101772218 
0.003127519850464734 
0.003424251779813352 
0.00133639860105198 
-0.004395402989393163 
-0.005709076810604756 
-0.003101911932330731 
-0.005101660452890605 
0 
-0.005709076810604756 
0.003101911932330731 
0.00133639860105198 
0.004395402989393163 
-0.002283700889213507 
-0.004702639077140705 
-0.004880831511234676 
0.0002893043218833384 
-0.003161648300437009 
0 
-0.004880831511234676 
-0.0002893043218833384 
-0.002283700889213507 
0.004702639077140705 
-0.001512982925747122 
0.000893861386308456 
-0.0008958551296966832 
0.0002381082566813588 
-0.002135365056707634 
0 
-0.0008958551296966832 
-0.0002381082566813588 
-0.001512982925747122 
-0.000893861386308456 
0.0004915471472508045 
0.00516436787266132 
0.006578858182890925 
0.002518576429590638 
0.006409636269007279 
0 
0.006578858182890925 
-0.002518576429590638 
0.0004915471472508045 
-0.00516436787266132 
-0.001395889407557286 
-0.003105867337072713 
-0.004181848800293579 
-0.0007751920312322611 
-0.003722546332153337 
0 
-0.004181848800293579 
0.0007751920312322611 
-0.001395889407557286 
0.003105867337072713 
-0.003051097629362044 
-0.00469972569838708 
-0.004973721030343494 
0.003104334729887698 
0.0001518642482714021 
0 
-0.004973721030343494 
-0.003104334729887698 
-0.003051097629362044 
0.00469972569838708 
-0.0004924105446129249 
-0.001737089533838812 
-0.00250562098144632 
0.002683528405003153 
0.005352400562654448 
0 
-0.00250562098144632 
-0.002683528405003153 
-0.0004924105446129249 
0.001737089533838812 
0.001523971692778838 
-0.0005075323511500103 
-0.002078592112175464 
-0.001496309244599444 
-0.0005171639449794256 
0 
-0.002078592112175464 
0.001496309244599444 
0.001523971692778838 
0.0005075323511500103 
0.0009140265274666206 
-0.0006605217685624151 
-0.001343792200754306 
-0.001211173917106139 
-0.0008212923191331848 
0 
-0.001343792200754306 
0.001211173917106139 
0.0009140265274666206 
0.0006605217685624151 
0.0002697156732448162 
0.002332255412816608 
0.001909609249880376 
-0.003986282141731794 
-0.005431814222306089 
0 
0.001909609249880376 
0.003986282141731794 
0.0002697156732448162 
-0.002332255412816608 
0.003059918511481789 
0.000391672928413209 
-0.001890627002569999 
-0.006017528770376862 
-0.006198098319032957 
0 
-0.001890627002569999 
0.006017528770376862 
0.003059918511481789 
-0.000391672928413209 
0.004657321067800555 
-0.004598977196055986 
-0.006921592254646701 
-0.007922916915288554 
-0.01095101012819489 
0 
-0.006921592254646701 
0.007922916915288554 
0.004657321067800555 
0.004598977196055986 
0.003681545402431201 
0.0002552271410750368 
-0.001744137008855552 
-0.006701927885385525 
-0.007162290697089552 
0 
-0.001744137008855552 
0.006701927885385525 
0.003681545402431201 
-0.0002552271410750368 
0.003528952062188671 
-0.0009292717658046949 
-0.002557537039985002 
-0.006358225013320381 
-0.007840500956528157 
0 
-0.002557537039985002 
0.006358225013320381 
0.003528952062188671 
0.0009292717658046949 
0.003304501211467592 
0.0005432026038000775 
-0.001411416709040201 
-0.004951770176876982 
-0.004598558530922467 
0 
-0.001411416709040201 
0.004951770176876982 
0.003304501211467592 
-0.0005432026038000775 
0.003983895573536806 
-0.0007273220367076007 
-0.002770480750615312 
-0.005598681810483457 
-0.005930974460572198 
0 
-0.002770480750615312 
0.005598681810483457 
0.003983895573536806 
0.0007273220367076007 
0.004033055985662569 
-0.002540725783090246 
-0.004034763044075619 
-0.005110826396973557 
-0.005743662136518881 
0 
-0.004034763044075619 
0.005110826396973557 
0.004033055985662569 
0.002540725783090246 
0.001499918000499585 
-0.003096125204172509 
-0.003928435778931295 
-0.005825130880079068 
-0.01004412789247641 
0 
-0.003928435778931295 
0.005825130880079068 
0.001499918000499585 
0.003096125204172509 
-0.001581642351505212 
0.001468157979496401 
0.001724107165339481 
0.001484161174239956 
0.0001974674358052245 
0 
0.001724107165339481 
-0.001484161174239956 
-0.001581642351505212 
-0.001468157979496401 
0.001562756201009986 
-0.001375204722122263 
-0.001085031916918681 
-0.004011806559201422 
-0.006819310395138833 
0 
-0.001085031916918681 
0.004011806559201422 
0.001562756201009986 
0.001375204722122263 
-0.002492079001896711 
-0.0006841227274078714 
0.0004839748229823177 
0.004774675493661 
0.006551020844272907 
0 
0.0004839748229823177 
-0.004774675493661 
-0.002492079001896711 
0.0006841227274078714 
0.002049708275190068 
0.0009396192209084187 
-0.000690518047289864 
0.0005807593945308267 
0.004651894085376604 
0 
-0.000690518047289864 
-0.0005807593945308267 
0.002049708275190068 
-0.0009396192209084187 
0.00108027854215505 
-0.002940222335239548 
-0.005094333277503971 
-0.00131464396542948 
-0.0002037659480838034 
0 
-0.005094333277503971 
0.00131464396542948 
0.00108027854215505 
0.002940222335239548 
0.002077129691199255 
-0.0004954795602015202 
-0.00121724224013859 
-0.005357262682611818 
-0.007946583294497333 
0 
-0.00121724224013859 
0.005357262682611818 
0.002077129691199255 
0.0004954795602015202 
0.003356463565657427 
-0.001203121661272141 
-0.003854602899791883 
-0.002608768824469971 
-4.068626862780377e-05 
0 
-0.003854602899791883 
0.002608768824469971 
0.003356463565657427 
0.001203121661272141 
0.0002037782079875504 
1.830965323639358e-05 
-0.001463303100462625 
-0.000916744639096748 
0.001425642177132107 
0 
-0.001463303100462625 
0.000916744639096748 
0.0002037782079875504 
-1.830965323639358e-05 
-0.002391912421361464 
0.006197680892577809 
0.008741232359655562 
0.01166471584572294 
0.02048802752909632 
0 
0.008741232359655562 
-0.01166471584572294 
-0.002391912421361464 
-0.006197680892577809 
-0.0009786148107228205 
-0.001885953643642968 
-0.002450207689107898 
0.001360330260018099 
0.00154459259214986 
0 
-0.002450207689107898 
-0.001360330260018099 
-0.0009786148107228205 
0.001885953643642968 
0.0004355096014690279 
0.0005084227971452746 
0.0004090004055699203 
-0.002591292808280829 
-0.003369681300082071 
0 
0.0004090004055699203 
0.002591292808280829 
0.0004355096014690279 
-0.0005084227971452746 
0.0004298140463329084 
0.0009876633856094586 
7.444215236856112e-05 
-0.002380666207340495 
-0.00192096874298924 
0 
7.444215236856112e-05 
0.002380666207340495 
0.0004298140463329084 
-0.0009876633856094586 
0.001673903361129486 
-0.0006356292244840965 
-0.002724368509373025 
-0.0009713437999243475 
0.001725957458639041 
0 
-0.002724368509373025 
0.0009713437999243475 
0.001673903361129486 
0.0006356292244840965 
-0.0002134074862678714 
0.0008776223391941775 
0.001264836114555508 
-0.001006649940512231 
-0.002328360059955738 
0 
0.001264836114555508 
0.001006649940512231 
-0.0002134074862678714 
-0.0008776223391941775 
0.002135358470300664 
0.002295246213112731 
0.0003915962562653965 
-0.003688062025096679 
-0.002988855361369685 
0 
0.0003915962562653965 
0.003688062025096679 
0.002135358470300664 
-0.002295246213112731 
0.0001217976819069519 
0.003809220877244388 
0.003972676815559974 
-0.0007528034522259643 
-0.0002163472805303641 
0 
0.003972676815559974 
0.0007528034522259643 
0.0001217976819069519 
-0.003809220877244388 
0.003062754869204779 
-0.003739755653506752 
-0.00853800644294901 
-0.008778799616345539 
-0.01497860853726794 
0 
-0.00853800644294901 
0.008778799616345539 
0.003062754869204779 
0.003739755653506752 
0.000312242175620713 
-0.0001700118009136867 
0.0004079186343346618 
-0.003377027985060674 
-0.007009198594822187 
0 
0.0004079186343346618 
0.003377027985060674 
0.000312242175620713 
0.0001700118009136867 
0.003299219005415411 
-0.001165742942073071 
-0.003466767557080595 
-0.007419661314062916 
-0.008755878095234619 
0 
-0.003466767557080595 
0.007419661314062916 
0.003299219005415411 
0.001165742942073071 
0.002812644454204405 
8.551378316419523e-05 
-0.002019771683142834 
-0.004655827073984284 
-0.004048459137490406 
0 
-0.002019771683142834 
0.004655827073984284 
0.002812644454204405 
-8.551378316419523e-05 
0.001764755702603427 
0.001613595797654688 
0.001544750311545552 
-0.006785025036935323 
-0.01110105555298552 
0 
0.001544750311545552 
0.006785025036935323 
0.001764755702603427 
-0.001613595797654688 
0.002719589833917306 
-0.000577275635961932 
-0.002969167489254573 
-0.003102887327302095 
-0.001214897082694057 
0 
-0.002969167489254573 
0.003102887327302095 
0.002719589833917306 
0.000577275635961932 
0.004283615272396565 
0.0009020171449868371 
-0.001565960018448126 
-0.007081732310672881 
-0.006701130028634554 
0 
-0.001565960018448126 
0.007081732310672881 
0.004283615272396565 
-0.0009020171449868371 
0.002095189210283639 
0.0001186902454228038 
-0.001456929169843927 
-0.003157793615158473 
-0.001808642302227846 
0 
-0.001456929169843927 
0.003157793615158473 
0.002095189210283639 
-0.0001186902454228038 
0.005777985132764802 
-0.002678731273973279 
-0.005147275998285835 
-0.01192534354651765 
-0.01659346569295415 
0 
-0.005147275998285835 
0.01192534354651765 
0.005777985132764802 
0.002678731273973279 
0.002364090563672708 
-0.006934914925956267 
-0.01018010016097896 
-0.005317679710058486 
-0.009388762713711552 
0 
-0.01018010016097896 
0.005317679710058486 
0.002364090563672708 
0.006934914925956267 
0.002470478870258231 
-0.001483832077584989 
-0.003528587513208298 
-0.003922335522603742 
-0.002471733944598954 
0 
-0.003528587513208298 
0.003922335522603742 
0.002470478870258231 
0.001483832077584989 
0.001626895669075986 
-0.001429819756840261 
-0.004792403033625894 
-0.001014334456896222 
0.004193352386911675 
0 
-0.004792403033625894 
0.001014334456896222 
0.001626895669075986 
0.001429819756840261 
0.001387086012836736 
2.08424113652277e-05 
-0.0002662930641958933 
-0.003145430786465064 
-0.00402326733008509 
0 
-0.0002662930641958933 
0.003145430786465064 
0.001387086012836736 
-2.08424113652277e-05 
0.003476894133036589 
-0.001902243082899072 
-0.004851723254856689 
-0.0031112552550271 
-0.0002652835715818681 
0 
-0.004851723254856689 
0.0031112552550271 
0.003476894133036589 
0.001902243082899072 
-0.0011365535682069 
-0.0004855945756682811 
-0.001309799977798257 
0.002237890669754531 
0.005231542537047851 
0 
-0.001309799977798257 
-0.002237890669754531 
-0.0011365535682069 
0.0004855945756682811 
-0.001980139996706647 
-0.001320881702361326 
-0.0009535905430763485 
0.00474871697065775 
0.007488783563486097 
0 
-0.0009535905430763485 
-0.00474871697065775 
-0.001980139996706647 
0.001320881702361326 
-0.003278524181816182 
0.002984741123084072 
0.004607996143909541 
0.004725632316834202 
0.005285684488573712 
0 
0.004607996143909541 
-0.004725632316834202 
-0.003278524181816182 
-0.002984741123084072 
-3.276077395333999e-05 
0.002265946148191678 
0.002750360981063137 
0.002819242342026761 
0.006653937934710604 
0 
0.002750360981063137 
-0.002819242342026761 
-3.276077395333999e-05 
-0.002265946148191678 
-0.001386400508932862 
-0.003020036333730723 
-0.003288617348189775 
0.00365951256747342 
0.005743526943703672 
0 
-0.003288617348189775 
-0.00365951256747342 
-0.001386400508932862 
0.003020036333730723 
0.001585876102266704 
0.0003727600999303611 
-0.001037226062959749 
-0.003059808910826861 
-0.002881933370438963 
0 
-0.001037226062959749 
0.003059808910826861 
0.001585876102266704 
-0.0003727600999303611 
0.003759875948676744 
-0.0003651793485140968 
-0.00208917585832867 
-0.007187187878778079 
-0.008815054242966558 
0 
-0.00208917585832867 
0.007187187878778079 
0.003759875948676744 
0.0003651793485140968 
0.001310948336151163 
-0.0003097267850854636 
-0.001144018617074187 
-0.004791658655899323 
-0.007180225201301389 
0 
-0.001144018617074187 
0.004791658655899323 
0.001310948336151163 
0.0003097267850854636 
0.002473204690733916 
-0.0007805921329178037 
-0.002867280636063993 
-0.004593507964714353 
-0.005029021212453503 
0 
-0.002867280636063993 
0.004593507964714353 
0.002473204690733916 
0.0007805921329178037 
0.00136928373679426 
-4.078860674336849e-05 
-0.0009764171563707612 
-0.003912935839214537 
-0.005322304276746371 
0 
-0.0009764171563707612 
0.003912935839214537 
0.00136928373679426 
4.078860674336849e-05 
-0.0007383946860777 
0.006192007962159667 
0.008802521199366437 
0.007924030488308252 
0.01619293339974422 
0 
0.008802521199366437 
-0.007924030488308252 
-0.0007383946860777 
-0.006192007962159667 
-0.003046256495885551 
-0.002360155933398916 
-0.004071946657316854 
0.0007827845023701594 
-0.0018806139645712 
0 
-0.004071946657316854 
-0.0007827845023701594 
-0.003046256495885551 
0.002360155933398916 
0.002607580349831363 
9.65315673048822e-05 
-0.002215695862974294 
-0.003878421250770702 
-0.002654282627388328 
0 
-0.002215695862974294 
0.003878421250770702 
0.002607580349831363 
-9.65315673048822e-05 
0.0030421277480717 
0.002030883027583788 
0.0001320948693498113 
-0.006736264451308789 
-0.00788042457709816 
0 
0.0001320948693498113 
0.006736264451308789 
0.0030421277480717 
-0.002030883027583788 
0.0009414536609823582 
0.001258918835613223 
-0.0002093876526696997 
-0.003509871150713122 
-0.003484541063229683 
0 
-0.0002093876526696997 
0.003509871150713122 
0.0009414536609823582 
-0.001258918835613223 
0.001530989926856361 
0.001608370347608837 
-0.0002222594921034547 
-0.003148701010278644 
-0.001862556753707642 
0 
-0.0002222594921034547 
0.003148701010278644 
0.001530989926856361 
-0.001608370347608837 
0.001369114285204328 
0.0007542548413561876 
8.911917358938634e-05 
-0.002803962369547146 
-0.003354511577915625 
0 
8.911917358938634e-05 
0.002803962369547146 
0.001369114285204328 
-0.0007542548413561876 
0.0004516827606133198 
8.929644225465258e-05 
-0.0002607877052795999 
-0.001181674391013657 
-0.001208008301017301 
0 
-0.0002607877052795999 
0.001181674391013657 
0.0004516827606133198 
-8.929644225465258e-05 
-0.00196083278953222 
0.001527181999502963 
-0.0001196083830520253 
0.0009850123104165238 
-0.0001965874427320227 
0 
-0.0001196083830520253 
-0.0009850123104165238 
-0.00196083278953222 
-0.001527181999502963 
-0.007717536510683593 
0.002276664394639854 
0.002945526251402051 
0.01032028631485198 
0.01147760357707873 
0 
0.002945526251402051 
-0.01032028631485198 
-0.007717536510683593 
-0.002276664394639854 
-0.004725245614749894 
0.0008707424739207253 
0.001453850105032674 
0.008251780392897331 
0.01234985356145095 
0 
0.001453850105032674 
-0.008251780392897331 
-0.004725245614749894 
-0.0008707424739207253 
-0.0009279547287446603 
0.0004349815062680133 
-0.0002730962627554387 
0.002618841213047371 
0.005918284468848568 
0 
-0.0002730962627554387 
-0.002618841213047371 
-0.0009279547287446603 
-0.0004349815062680133 
0.002419294166594846 
0.001104528707637793 
-0.0001508810081414858 
-0.004557416548068981 
-0.005096011994849044 
0 
-0.0001508810081414858 
0.004557416548068981 
0.002419294166594846 
-0.001104528707637793 
0.002191637318795075 
0.0005846757025100367 
-0.001828936909316004 
-0.002460569458562413 
-2.502719245448363e-05 
0 
-0.001828936909316004 
0.002460569458562413 
0.002191637318795075 
-0.0005846757025100367 
-0.0003054914307339556 
0.0005696996302336214 
-0.0005106422552094568 
0.0009988710526896317 
0.003527574441384077 
0 
-0.0005106422552094568 
-0.0009988710526896317 
-0.0003054914307339556 
-0.0005696996302336214 
0.001007245095097432 
0.003734416513751088 
0.001787661785364369 
-0.00224144242527835 
-0.0004513491178293722 
0 
0.001787661785364369 
0.00224144242527835 
0.001007245095097432 
-0.003734416513751088 
0.005318387779253371 
0.001002886092485444 
-0.001973374662001239 
-0.01186349409687286 
-0.01528006007540334 
0 
-0.001973374662001239 
0.01186349409687286 
0.005318387779253371 
-0.001002886092485444 
0.00769136228654275 
-0.005476796193097276 
-0.009149714788438498 
-0.0133147575368243 
-0.01701897922577891 
0 
-0.009149714788438498 
0.0133147575368243 
0.00769136228654275 
0.005476796193097276 
0.004496077157811872 
0.00321444001248568 
-0.0007565892455006169 
-0.008952719138784697 
-0.007846567109253256 
0 
-0.0007565892455006169 
0.008952719138784697 
0.004496077157811872 
-0.00321444001248568 
0.002937417844151408 
0.001194843621696046 
-0.001414980452889029 
-0.004407998316560447 
-0.002794060760625317 
0 
-0.001414980452889029 
0.004407998316560447 
0.002937417844151408 
-0.001194843621696046 
0.004441702428753108 
-0.000217613003165036 
-0.00321923177514936 
-0.007267863357261282 
-0.006214700455015152 
0 
-0.00321923177514936 
0.007267863357261282 
0.004441702428753108 
0.000217613003165036 
0.004890644127072667 
-0.0007184919308260909 
-0.003967623594910441 
-0.005758454547586206 
-0.004902187023609001 
0 
-0.003967623594910441 
0.005758454547586206 
0.004890644127072667 
0.0007184919308260909 
0.001860164807137579 
-0.0004300316420815051 
-0.001945512346014523 
-0.002383293840456462 
-0.001387584661868547 
0 
-0.001945512346014523 
0.002383293840456462 
0.001860164807137579 
0.0004300316420815051 
-0.002948394931866064 
-0.001408780793809759 
-0.00132189452462176 
0.005308542718460444 
0.007906333647535926 
0 
-0.00132189452462176 
-0.005308542718460444 
-0.002948394931866064 
0.001408780793809759 
-0.001751761545701219 
0.001486830302346956 
0.0020254875098093 
0.004190266836392141 
0.007812590207074779 
0 
0.0020254875098093 
-0.004190266836392141 
-0.001751761545701219 
-0.001486830302346956 
-0.006987022993318901 
0.003822840095126424 
0.005279277696391034 
0.01275724394347439 
0.01865215686186404 
0 
0.005279277696391034 
-0.01275724394347439 
-0.006987022993318901 
-0.003822840095126424 
-0.003989944546578802 
0.001434002964009651 
0.002680012426756683 
0.008194859439984388 
0.012061421963632 
0 
0.002680012426756683 
-0.008194859439984388 
-0.003989944546578802 
-0.001434002964009651 
0.001132358455142365 
-0.002602910270119153 
-0.003543038534061843 
-9.14960232729535e-05 
0.0008582766726035293 
0 
-0.003543038534061843 
9.14960232729535e-05 
0.001132358455142365 
0.002602910270119153 
0.00321187724998104 
-0.004273546565866959 
-0.00577083275753581 
-0.001788382845945663 
-0.0004365784663677397 
0 
-0.00577083275753581 
0.001788382845945663 
0.00321187724998104 
0.004273546565866959 
0.004199522434532428 
0.0006184523954177369 
-0.001900743300181959 
-0.008614833318400307 
-0.01023233906278742 
0 
-0.001900743300181959 
0.008614833318400307 
0.004199522434532428 
-0.0006184523954177369 
0.004786892338051334 
-0.001143800843044808 
-0.003776718041721877 
-0.006809633902701149 
-0.006895403733455005 
0 
-0.003776718041721877 
0.006809633902701149 
0.004786892338051334 
0.001143800843044808 
0.003339324456797668 
-0.002847667331405821 
-0.004780032527943661 
-0.003426368945844597 
-0.002211612049990153 
0 
-0.004780032527943661 
0.003426368945844597 
0.003339324456797668 
0.002847667331405821 
-0.002040077969481042 
0.002241878813126662 
0.0009819067826164353 
0.005249672618685568 
0.006202199271545535 
0 
0.0009819067826164353 
-0.005249672618685568 
-0.002040077969481042 
-0.002241878813126662 
-0.0002761961760030774 
-0.004300598587738273 
-0.005897444515671313 
-0.001224394077857326 
-0.003957417115853571 
0 
-0.005897444515671313 
0.001224394077857326 
-0.0002761961760030774 
0.004300598587738273 
0.004669746661485678 
-0.003978816530421772 
-0.006804549691073949 
-0.006311503181745885 
-0.006964302616623392 
0 
-0.006804549691073949 
0.006311503181745885 
0.004669746661485678 
0.003978816530421772 
0.003439701753408437 
-0.003420905390610382 
-0.005564376511323401 
-0.006817846660928224 
-0.009453439294690806 
0 
-0.005564376511323401 
0.006817846660928224 
0.003439701753408437 
0.003420905390610382 
0.001320774545747206 
-0.003414740508214818 
-0.005029458848519961 
-0.001934059916715661 
-0.002177662420852644 
0 
-0.005029458848519961 
0.001934059916715661 
0.001320774545747206 
0.003414740508214818 
-0.0001805499059237983 
0.0002848964312380808 
-0.0005690444821955409 
0.001818566762059095 
0.004765864900580825 
0 
-0.0005690444821955409 
-0.001818566762059095 
-0.0001805499059237983 
-0.0002848964312380808 
-0.004967172343216963 
0.0002107611005419979 
0.00147646013342475 
0.009294478797984082 
0.0130503886536033 
0 
0.00147646013342475 
-0.009294478797984082 
-0.004967172343216963 
-0.0002107611005419979 
-0.005753772103002501 
0.001532044662283506 
0.003506813120170756 
0.01132447792259961 
0.01635613373254436 
0 
0.003506813120170756 
-0.01132447792259961 
-0.005753772103002501 
-0.001532044662283506 
-0.00838675358653795 
0.0006020318923255377 
-0.001008024284204068 
0.008655254145633326 
0.005927017570870187 
0 
-0.001008024284204068 
-0.008655254145633326 
-0.00838675358653795 
-0.0006020318923255377 
-0.004201937155606696 
0.001013019723781067 
-0.0007483464239590686 
0.006043634413055282 
0.00757268345786491 
0 
-0.0007483464239590686 
-0.006043634413055282 
-0.004201937155606696 
-0.001013019723781067 
-0.001759960058069418 
-0.002170719960062325 
-0.002694813871469287 
0.003803128365254378 
0.00559799722464961 
0 
-0.002694813871469287 
-0.003803128365254378 
-0.001759960058069418 
0.002170719960062325 
-0.002762934557390153 
0.001254759892887435 
0.0007200039264705566 
0.006083668276695478 
0.009927608933706148 
0 
0.0007200039264705566 
-0.006083668276695478 
-0.002762934557390153 
-0.001254759892887435 
-0.0007305497583445553 
-0.001449245158885464 
-0.002572327171094637 
0.002196560810082861 
0.004885549432304886 
0 
-0.002572327171094637 
-0.002196560810082861 
-0.0007305497583445553 
0.001449245158885464 
0.002027117149182124 
-0.002048564957528201 
-0.003541642813945789 
-0.0009242680676863614 
0.0006726381169147564 
0 
-0.003541642813945789 
0.0009242680676863614 
0.002027117149182124 
0.002048564957528201 
0.001075526048129789 
-0.001898601598079276 
-0.004171204365076171 
0.00108641638375016 
0.005391176276660073 
0 
-0.004171204365076171 
-0.00108641638375016 
0.001075526048129789 
0.001898601598079276 
0.002818758018913244 
0.0004492135745061987 
-0.002405214290232722 
-0.003459789114348438 
-0.001214185289075206 
0 
-0.002405214290232722 
0.003459789114348438 
0.002818758018913244 
-0.0004492135745061987 
0.00212284575879506 
-0.001743629476219914 
-0.00405773951061358 
-0.003847735295891109 
-0.003035312191334096 
0 
-0.00405773951061358 
0.003847735295891109 
0.00212284575879506 
0.001743629476219914 
0.0007347570902697655 
-0.006143547407177942 
-0.009309929670953829 
-0.006322797837916706 
-0.01304663457132998 
0 
-0.009309929670953829 
0.006322797837916706 
0.0007347570902697655 
0.006143547407177942 
0.00258539986234025 
-0.0003936963520819386 
-0.002320501760182939 
-0.003283780785799083 
-0.002345693050328615 
0 
-0.002320501760182939 
0.003283780785799083 
0.00258539986234025 
0.0003936963520819386 
0.001255908707260675 
-0.0006435178495982953 
-0.002448204814164214 
-0.000285784403865197 
0.002479014289574647 
0 
-0.002448204814164214 
0.000285784403865197 
0.001255908707260675 
0.0006435178495982953 
0.001757881100326352 
0.0001960692785483247 
-0.002132488479347513 
-0.00232898547257924 
0.0001416255200427648 
0 
-0.002132488479347513 
0.00232898547257924 
0.001757881100326352 
-0.0001960692785483247 
0.002067903800612518 
-0.001327237209413598 
-0.002787803275429325 
-0.00207432836895 
-0.001210714732957617 
0 
-0.002787803275429325 
0.00207432836895 
0.002067903800612518 
0.001327237209413598 
-0.0003025885362821402 
-0.0029825896401906 
-0.003713998400753077 
0.002089642520609271 
0.004253395262338573 
0 
-0.003713998400753077 
-0.002089642520609271 
-0.0003025885362821402 
0.0029825896401906 
-0.00372854264023746 
0.001502670532484945 
0.001529151722818605 
0.006265725552627867 
0.008779186516276512 
0 
0.001529151722818605 
-0.006265725552627867 
-0.00372854264023746 
-0.001502670532484945 
-0.01030869038672763 
0.005247050051439858 
0.004310159739969209 
0.01582795005950825 
0.01927550154478717 
0 
0.004310159739969209 
-0.01582795005950825 
-0.01030869038672763 
-0.005247050051439858 
-0.002117133863661792 
0.003530272380907526 
0.00499651293147212 
0.005708221221321845 
0.009843853395301172 
0 
0.00499651293147212 
-0.005708221221321845 
-0.002117133863661792 
-0.003530272380907526 
0.0006513475450855707 
-0.002637889479831278 
-0.003881306360697138 
0.001330737477646667 
0.004295384928091782 
0 
-0.003881306360697138 
-0.001330737477646667 
0.0006513475450855707 
0.002637889479831278 
0.002220474967938468 
-0.002013483521778016 
-0.004652733907889877 
-0.001249571703180739 
0.002084117784931961 
0 
-0.004652733907889877 
0.001249571703180739 
0.002220474967938468 
0.002013483521778016 
0.003882501100014766 
-0.001658416411323351 
-0.004744628286810154 
-0.003686863137726252 
-0.001168802860098829 
0 
-0.004744628286810154 
0.003686863137726252 
0.003882501100014766 
0.001658416411323351 
0.001628471787436532 
-0.001271804522838083 
-0.002716331625183929 
-0.000945164394233964 
0.0008577705760789986 
0 
-0.002716331625183929 
0.000945164394233964 
0.001628471787436532 
0.001271804522838083 
0.001148784820925286 
-0.001065872346548873 
-0.003552506093416418 
0.0009585663855509683 
0.005761220679978809 
0 
-0.003552506093416418 
-0.0009585663855509683 
0.001148784820925286 
0.001065872346548873 
0.001404570620685579 
0.0002808388016173643 
-0.001887048065690727 
-0.0009348140915095806 
0.002119167087003189 
0 
-0.001887048065690727 
0.0009348140915095806 
0.001404570620685579 
-0.0002808388016173643 
0.002336921555872206 
0.01158897741172294 
0.02062195978357042 
0.01521633080831935 
0.03961776399167402 
0 
0.02062195978357042 
-0.01521633080831935 
